100 100
*dt_0 0.006953 -0.006058 0.018397 0.006799 -0.005222 0.015877 -0.012347 0.034510 0.018342 -0.001272 -0.012796 0.008200 -0.003115 0.008154 -0.015324 0.002236 -0.011125 -0.004798 -0.011734 -0.013034 0.009555 -0.012198 -0.020831 0.019101 0.006055 0.018796 0.001535 0.008129 0.002448 -0.001582 0.005792 0.002961 -0.001764 -0.004616 0.020621 -0.021496 0.005668 -0.004518 -0.006149 0.002691 0.003776 -0.005823 0.007478 0.013005 -0.020374 -0.017117 0.007483 -0.004083 0.003350 -0.003155 -0.009647 0.010304 0.012162 0.000857 -0.003116 0.008446 -0.004007 -0.001257 0.003352 -0.015919 -0.009464 -0.002281 -0.007957 -0.021354 -0.004901 0.000927 0.002168 -0.013557 -0.008844 0.019130 -0.001871 0.007295 0.008635 0.007216 0.004126 -0.001924 -0.000199 0.002020 -0.001416 0.013756 -0.012991 0.026670 -0.002086 0.003992 -0.006722 0.004799 -0.009722 -0.000827 0.002458 -0.017451 -0.013726 -0.010165 -0.003142 0.006253 0.007772 -0.007829 0.009544 0.000877 -0.007907 0.017880
*dt_1 0.011148 -0.021699 0.047276 0.010734 -0.026096 0.032385 -0.017809 0.087715 0.036596 0.005340 -0.034395 0.009018 -0.011104 0.010963 -0.029768 -0.002839 -0.033822 -0.001087 -0.020523 -0.037237 0.019973 -0.020099 -0.047097 0.031493 0.005756 0.044919 0.011111 0.022364 0.012596 -0.001621 0.008782 0.009935 0.007217 -0.017384 0.049375 -0.037100 0.016011 -0.003592 -0.004596 0.016490 -0.001418 -0.015831 0.010779 0.025355 -0.041247 -0.031350 0.021390 -0.015004 0.005877 -0.012352 -0.013488 0.031476 0.039243 -0.004556 -0.000834 0.012560 -0.000751 -0.008081 0.004245 -0.028984 -0.010071 0.003338 -0.017597 -0.045655 -0.013586 -0.002533 0.012911 -0.025098 -0.025948 0.031612 -0.010669 0.015911 0.012810 0.019426 0.003233 -0.003773 -0.006910 0.008324 0.000632 0.018628 -0.034681 0.049381 -0.010511 0.006000 -0.021730 0.018169 -0.012744 -0.004821 0.011437 -0.034101 -0.032721 -0.027028 -0.000409 0.008000 0.029270 -0.012909 0.013058 -0.009322 -0.027459 0.048729
*dt_2 0.006395 -0.009152 0.017183 0.008040 -0.007248 0.019058 -0.008787 0.044029 0.012649 0.002404 -0.017231 0.001913 -0.005920 0.001439 -0.012004 -0.000450 -0.016938 -0.006237 -0.006813 -0.021440 0.005837 -0.005484 -0.019969 0.014650 0.002644 0.023528 0.002735 0.012537 0.001932 -0.000808 0.009544 0.007947 -0.001396 -0.011782 0.021262 -0.022023 0.003269 -0.007231 -0.002781 0.009781 -0.000669 -0.004475 -0.001577 0.014607 -0.018136 -0.014023 0.013044 -0.007550 0.004455 -0.006512 -0.009687 0.015556 0.012803 -0.004428 0.005833 0.005903 0.004611 -0.004171 0.004292 -0.017709 -0.008602 -0.001825 -0.005264 -0.024399 -0.011763 -0.004581 0.002097 -0.011998 -0.007077 0.018350 -0.007053 0.003136 0.007315 0.007940 0.004730 -0.001830 -0.006977 0.008013 0.000476 0.013332 -0.020739 0.027429 -0.006969 0.004235 -0.006974 0.003884 -0.006660 -0.005225 0.005037 -0.015901 -0.011630 -0.007404 -0.004961 -0.001143 0.012186 -0.009921 0.009670 -0.005660 -0.012023 0.023649
*dt_3 0.000868 -0.002252 0.003194 -0.000071 0.002872 -0.000686 0.001825 0.009653 -0.000673 -0.001387 -0.001377 -0.003585 0.001372 0.000803 -0.005794 -0.004513 0.000651 0.001730 -0.006181 -0.002654 0.000773 -0.002080 -0.006725 0.003559 -0.001971 0.008204 0.001784 0.000209 0.002450 -0.003209 0.003978 -0.002609 0.004098 0.000006 0.009437 0.000055 0.000768 -0.002932 -0.004075 0.001441 0.003476 0.001520 0.004804 0.003202 -0.007079 0.001528 -0.001266 -0.003888 0.004722 -0.002231 -0.006266 0.007577 0.000570 -0.004380 -0.002503 0.000092 -0.000205 0.001665 0.002211 -0.006663 -0.003835 -0.001016 0.000809 -0.008528 -0.003104 0.001917 0.005012 0.002766 -0.007136 0.005866 0.000749 -0.001135 -0.002923 -0.001824 -0.004491 0.001765 -0.004636 -0.003118 -0.004314 0.005379 -0.005374 0.002649 0.000708 0.004161 -0.000252 0.003092 0.001794 -0.000286 -0.002312 -0.003622 -0.004223 -0.005996 0.001285 0.002288 0.006077 -0.002725 0.005918 0.003934 0.000269 0.008601
*dt_4 0.071365 -0.101695 0.198728 0.039139 -0.108775 0.180733 -0.093006 0.399328 0.167745 0.015359 -0.159216 0.040726 -0.061016 0.040707 -0.154304 -0.006130 -0.151622 -0.016590 -0.110338 -0.178022 0.078752 -0.099610 -0.246436 0.168216 0.032602 0.226991 0.030872 0.081627 0.055092 -0.005012 0.053426 0.051428 0.015309 -0.080095 0.257360 -0.189583 0.055696 -0.040235 -0.023184 0.067674 0.003380 -0.074453 0.042765 0.124511 -0.171793 -0.150058 0.115324 -0.068597 0.048221 -0.046378 -0.072749 0.129097 0.171786 -0.015907 0.016297 0.076629 -0.003433 -0.043222 0.032848 -0.141995 -0.066572 0.011325 -0.070172 -0.214053 -0.076370 -0.034073 0.063532 -0.110628 -0.108086 0.179734 -0.050010 0.085150 0.041439 0.080405 0.016931 -0.039836 -0.041198 0.067846 -0.014162 0.089058 -0.194367 0.241220 -0.056384 0.027671 -0.081943 0.071282 -0.084604 -0.041451 0.047373 -0.188728 -0.156992 -0.109830 -0.018462 0.030833 0.127476 -0.054286 0.076680 -0.035371 -0.130949 0.219664
*dt_5 0.060746 -0.085127 0.191318 0.035659 -0.096886 0.163924 -0.084862 0.372659 0.154620 0.014927 -0.146563 0.029402 -0.055197 0.037970 -0.141864 -0.009601 -0.141288 -0.016560 -0.097275 -0.157607 0.073840 -0.093922 -0.228523 0.162456 0.028849 0.210994 0.037651 0.074501 0.054309 0.000692 0.047382 0.036836 0.016434 -0.072729 0.243546 -0.179388 0.058743 -0.036252 -0.028525 0.058991 0.001626 -0.072013 0.035358 0.116419 -0.160211 -0.138293 0.105092 -0.059443 0.039945 -0.047580 -0.070727 0.120206 0.160048 -0.016199 0.016435 0.072436 -0.006373 -0.042472 0.038400 -0.140971 -0.058402 0.002488 -0.060193 -0.195283 -0.075628 -0.038198 0.054686 -0.106021 -0.106739 0.161552 -0.038797 0.074140 0.046344 0.077651 0.012834 -0.040923 -0.039988 0.059758 -0.007452 0.086103 -0.172771 0.216426 -0.049500 0.020263 -0.069854 0.075370 -0.079216 -0.047408 0.046375 -0.168661 -0.137887 -0.105851 -0.018082 0.021790 0.120579 -0.056828 0.070166 -0.025762 -0.130632 0.208065
*dt_6 0.033650 -0.052466 0.103555 0.019238 -0.048131 0.082897 -0.048833 0.199986 0.085578 0.013799 -0.083144 0.018077 -0.033164 0.016361 -0.073321 -0.006734 -0.077727 -0.004407 -0.048076 -0.089766 0.035066 -0.046961 -0.120740 0.089319 0.013005 0.113836 0.014167 0.045902 0.033556 -0.004127 0.025551 0.022461 0.004893 -0.041061 0.128273 -0.094976 0.031570 -0.021451 -0.018649 0.029699 0.000883 -0.033204 0.022984 0.061125 -0.092005 -0.076144 0.052359 -0.035448 0.024953 -0.018540 -0.035625 0.060844 0.082736 -0.006324 0.008358 0.039663 -0.001798 -0.021981 0.021638 -0.076877 -0.028655 -0.001494 -0.033394 -0.100700 -0.036064 -0.012751 0.030221 -0.049646 -0.054055 0.086505 -0.025204 0.038001 0.027812 0.035065 0.005960 -0.019737 -0.022529 0.031583 -0.011116 0.046008 -0.097381 0.114375 -0.025360 0.009904 -0.036251 0.040981 -0.039797 -0.020084 0.019619 -0.090094 -0.070559 -0.052990 -0.011618 0.014110 0.066003 -0.024701 0.041466 -0.020177 -0.063979 0.112096
*dt_7 0.257143 -0.360161 0.751470 0.135527 -0.389226 0.647791 -0.322976 1.484301 0.617097 0.066420 -0.590849 0.137278 -0.203686 0.157717 -0.569206 -0.028288 -0.557641 -0.066344 -0.379934 -0.628198 0.298471 -0.376728 -0.915223 0.634721 0.125513 0.837633 0.131885 0.312835 0.223706 -0.015760 0.183166 0.160079 0.064495 -0.292714 0.956242 -0.708835 0.221345 -0.132152 -0.097904 0.231202 -0.001055 -0.275288 0.129083 0.447278 -0.654529 -0.536790 0.408302 -0.235617 0.167072 -0.172679 -0.265527 0.482840 0.629575 -0.035533 0.061729 0.277412 -0.022136 -0.162988 0.144723 -0.543686 -0.237775 0.024549 -0.235479 -0.769677 -0.281044 -0.132663 0.230716 -0.405733 -0.417685 0.650586 -0.159288 0.306795 0.169010 0.282387 0.043475 -0.145650 -0.164581 0.235243 -0.047383 0.346852 -0.700333 0.869733 -0.218655 0.079730 -0.294003 0.280591 -0.308474 -0.170560 0.163428 -0.674917 -0.563190 -0.402694 -0.053428 0.105288 0.458375 -0.218129 0.277358 -0.122989 -0.489368 0.813758
*dt_8 0.187866 -0.276930 0.591782 0.097074 -0.298413 0.508538 -0.254220 1.164229 0.484639 0.053280 -0.459837 0.107114 -0.164542 0.122506 -0.447053 -0.026940 -0.440424 -0.051584 -0.303383 -0.495348 0.232093 -0.286570 -0.714157 0.491248 0.087502 0.663862 0.110685 0.243857 0.181231 -0.003696 0.147055 0.131466 0.057184 -0.233222 0.749472 -0.547082 0.174937 -0.094469 -0.078141 0.187833 0.009327 -0.214076 0.101981 0.350264 -0.507048 -0.426374 0.311287 -0.187326 0.135218 -0.136182 -0.205938 0.376517 0.497732 -0.036337 0.051872 0.214916 -0.009452 -0.132878 0.107369 -0.427592 -0.189903 0.012858 -0.179507 -0.605212 -0.211989 -0.096325 0.173284 -0.322058 -0.327701 0.506798 -0.125304 0.232151 0.142279 0.224332 0.031332 -0.114440 -0.130832 0.181469 -0.031584 0.275227 -0.542257 0.679468 -0.169627 0.063150 -0.232489 0.209428 -0.246211 -0.128444 0.120671 -0.536471 -0.441265 -0.308834 -0.039537 0.079937 0.358415 -0.159332 0.212916 -0.093077 -0.379204 0.630371
*dt_9 0.058158 -0.081782 0.175499 0.031945 -0.093550 0.146240 -0.069757 0.335637 0.145267 0.015546 -0.137180 0.034970 -0.047019 0.037106 -0.135639 -0.008087 -0.126801 -0.013690 -0.084160 -0.147424 0.068313 -0.089528 -0.213506 0.142968 0.026068 0.194635 0.035631 0.073886 0.056829 -0.005444 0.041023 0.032248 0.012430 -0.063280 0.222692 -0.164930 0.054363 -0.026440 -0.024680 0.055625 0.003195 -0.060574 0.026807 0.106726 -0.149714 -0.122890 0.090988 -0.056542 0.035588 -0.040397 -0.063894 0.110327 0.142357 -0.009389 0.014322 0.063675 -0.001524 -0.032283 0.036237 -0.123248 -0.057173 0.002300 -0.058992 -0.175272 -0.068899 -0.033421 0.049586 -0.095175 -0.097021 0.143320 -0.036040 0.066749 0.042620 0.071259 0.014028 -0.034015 -0.042742 0.057225 -0.005012 0.077335 -0.159674 0.199189 -0.046730 0.019959 -0.063584 0.064694 -0.067462 -0.036167 0.036787 -0.158189 -0.131261 -0.090393 -0.012313 0.022789 0.104516 -0.044683 0.059164 -0.023539 -0.114765 0.183581
*dt_10 0.014019 -0.013890 0.034514 0.010313 -0.023799 0.035006 -0.017043 0.071134 0.035600 0.005381 -0.031547 0.006223 -0.011730 0.008922 -0.029681 0.001825 -0.030415 -0.005651 -0.017971 -0.035494 0.011914 -0.017455 -0.040832 0.035585 0.001910 0.046660 0.005632 0.011923 0.009860 0.001956 0.009921 0.011246 0.000860 -0.014998 0.046603 -0.037684 0.008546 -0.008393 -0.002306 0.012520 -0.000424 -0.017808 0.006755 0.021055 -0.034039 -0.026326 0.024908 -0.011022 0.010167 -0.009111 -0.008363 0.025000 0.035423 -0.001843 0.002758 0.012086 -0.002957 -0.005507 0.011241 -0.023004 -0.013195 -0.002862 -0.014593 -0.034429 -0.017350 -0.007656 0.008645 -0.024397 -0.021517 0.028565 -0.011427 0.016985 0.004958 0.009271 -0.000601 -0.004590 -0.010004 0.015772 -0.004947 0.019477 -0.032676 0.039358 -0.009157 0.008565 -0.012430 0.017271 -0.016061 -0.007092 0.006403 -0.031568 -0.025511 -0.016331 -0.006301 0.008905 0.024864 -0.011982 0.013877 -0.003529 -0.023713 0.042538
*dt_11 0.112678 -0.151875 0.329025 0.058358 -0.160697 0.281935 -0.136084 0.636582 0.267098 0.032070 -0.252334 0.062330 -0.088875 0.061756 -0.240973 -0.010259 -0.245014 -0.031745 -0.161329 -0.266750 0.123621 -0.164570 -0.395786 0.276141 0.056859 0.360855 0.055289 0.137621 0.096113 -0.005717 0.081028 0.067300 0.030101 -0.123344 0.410318 -0.302677 0.092223 -0.057463 -0.047659 0.097120 0.003836 -0.122819 0.059682 0.191364 -0.277877 -0.232404 0.170091 -0.101946 0.065772 -0.072387 -0.116813 0.208094 0.268889 -0.021753 0.025974 0.120454 -0.008422 -0.066391 0.063330 -0.234670 -0.104402 0.008279 -0.095770 -0.327369 -0.121470 -0.053876 0.095197 -0.170092 -0.174124 0.280495 -0.063596 0.134921 0.077634 0.125245 0.015122 -0.058243 -0.076258 0.102600 -0.018826 0.144902 -0.297883 0.378228 -0.088141 0.038406 -0.128444 0.115312 -0.134342 -0.072416 0.064576 -0.290001 -0.242948 -0.168167 -0.024423 0.039927 0.198074 -0.092628 0.122597 -0.053339 -0.218367 0.349603
*dt_12 0.028071 -0.039722 0.088602 0.017476 -0.038230 0.070219 -0.032894 0.167158 0.072668 0.012365 -0.062878 0.018823 -0.025861 0.020815 -0.058878 -0.004269 -0.066516 -0.002941 -0.042065 -0.074525 0.030064 -0.044456 -0.104453 0.066876 0.015709 0.095249 0.011836 0.037956 0.029799 -0.004997 0.017406 0.015716 0.003787 -0.032170 0.105867 -0.075566 0.022471 -0.017502 -0.008850 0.023070 0.000556 -0.030877 0.011452 0.052615 -0.077221 -0.059341 0.043769 -0.027017 0.021997 -0.022249 -0.030441 0.057741 0.071670 -0.002160 0.003476 0.026382 0.001572 -0.021890 0.011277 -0.055731 -0.023875 0.004112 -0.027787 -0.087406 -0.035269 -0.013964 0.027327 -0.040822 -0.043536 0.067617 -0.018741 0.030177 0.022748 0.034608 0.007233 -0.012546 -0.014459 0.024004 -0.003672 0.035484 -0.076562 0.094210 -0.023393 0.008925 -0.029850 0.026856 -0.035556 -0.019329 0.021729 -0.079613 -0.062785 -0.048717 -0.002914 0.010003 0.048641 -0.019847 0.034721 -0.015364 -0.054530 0.090805
*dt_13 0.074014 -0.097555 0.207558 0.041293 -0.103070 0.180462 -0.086608 0.416880 0.172841 0.014384 -0.165897 0.037834 -0.055607 0.048258 -0.156092 -0.012830 -0.162694 -0.021489 -0.104728 -0.173315 0.084017 -0.110507 -0.255504 0.176771 0.029390 0.231634 0.040773 0.087231 0.066279 -0.007749 0.047880 0.050077 0.015648 -0.086925 0.268088 -0.202881 0.063774 -0.032074 -0.032234 0.062271 -0.004082 -0.072918 0.038626 0.130721 -0.179705 -0.148446 0.116750 -0.065847 0.051259 -0.043136 -0.080127 0.138231 0.174300 -0.009912 0.014326 0.078930 -0.000060 -0.046038 0.037466 -0.148271 -0.062531 0.005935 -0.059640 -0.215918 -0.083962 -0.034851 0.061829 -0.113246 -0.111492 0.181730 -0.041437 0.090396 0.048409 0.078912 0.010282 -0.039861 -0.049288 0.068944 -0.011591 0.096886 -0.197418 0.246516 -0.055758 0.017857 -0.081921 0.081275 -0.085433 -0.050011 0.045414 -0.190481 -0.154191 -0.107968 -0.013029 0.025463 0.133815 -0.059707 0.075808 -0.038294 -0.139454 0.229205
*dt_14 0.074620 -0.113093 0.243209 0.041010 -0.126221 0.209753 -0.103586 0.471580 0.194718 0.022735 -0.188146 0.044125 -0.071190 0.046882 -0.179706 -0.006504 -0.174357 -0.024486 -0.122524 -0.205602 0.090026 -0.124625 -0.289649 0.201671 0.040912 0.262329 0.048953 0.093546 0.077382 -0.005499 0.061977 0.055496 0.024153 -0.095390 0.305814 -0.228635 0.076342 -0.040279 -0.033963 0.072541 0.000940 -0.083290 0.046091 0.141202 -0.212646 -0.176658 0.131640 -0.079536 0.054084 -0.050916 -0.082484 0.147399 0.204388 -0.017720 0.021526 0.086049 -0.006553 -0.048340 0.050844 -0.168193 -0.073036 0.010982 -0.075190 -0.242854 -0.088915 -0.044566 0.077279 -0.124739 -0.136041 0.204211 -0.054198 0.097981 0.061650 0.091527 0.014872 -0.052748 -0.055762 0.070451 -0.019420 0.111253 -0.216082 0.277919 -0.064221 0.020323 -0.088918 0.086732 -0.102029 -0.057202 0.054206 -0.215749 -0.178176 -0.125722 -0.015208 0.026711 0.148870 -0.064341 0.090531 -0.037108 -0.157869 0.253135
*dt_15 0.023753 -0.030428 0.055803 0.011322 -0.024255 0.049944 -0.024907 0.112733 0.049688 0.007164 -0.043364 0.013936 -0.013195 0.015381 -0.045880 0.000675 -0.038495 -0.008686 -0.031755 -0.044929 0.020651 -0.030353 -0.064968 0.044456 0.012676 0.061747 0.008032 0.022383 0.021709 0.003364 0.015835 0.007597 0.010253 -0.022233 0.070650 -0.056379 0.014086 -0.013440 -0.008495 0.016915 -0.000543 -0.016166 0.009343 0.031426 -0.052379 -0.035333 0.029127 -0.018403 0.007594 -0.015781 -0.020817 0.040761 0.048976 0.000061 0.001005 0.016340 0.003195 -0.012500 0.010955 -0.043841 -0.021818 -0.002661 -0.012604 -0.054224 -0.024969 -0.010882 0.014306 -0.032537 -0.025747 0.046290 -0.009182 0.027219 0.015512 0.021827 0.003594 -0.013153 -0.011305 0.017211 -0.008055 0.024053 -0.056236 0.061574 -0.010939 0.009465 -0.022884 0.020853 -0.018594 -0.013336 0.010952 -0.047817 -0.038217 -0.029198 -0.000523 0.010024 0.032474 -0.019207 0.018538 -0.007281 -0.032673 0.056563
*dt_16 0.011633 -0.018999 0.031955 0.009372 -0.012778 0.029206 -0.011812 0.055090 0.028259 0.001660 -0.018922 0.009374 -0.012552 0.008001 -0.023844 -0.005345 -0.025525 -0.000044 -0.014646 -0.027181 0.015547 -0.011274 -0.031872 0.026567 0.002900 0.037448 0.006999 0.009294 0.004638 -0.003648 0.006886 0.007191 0.004226 -0.009413 0.040415 -0.026985 0.004523 -0.000036 -0.007287 0.012552 0.001341 -0.006893 0.002144 0.022501 -0.029282 -0.024116 0.013356 -0.006157 0.002340 -0.007534 -0.007059 0.023319 0.021293 0.000370 0.002744 0.011615 -0.000007 -0.006897 0.010214 -0.017390 -0.007794 0.001792 -0.011563 -0.027905 -0.012250 -0.006763 0.006907 -0.020556 -0.018078 0.027275 -0.002328 0.017024 0.011659 0.016208 0.001278 -0.010559 -0.003585 0.008304 -0.005943 0.015123 -0.026749 0.038858 -0.010701 0.006308 -0.013882 0.009906 -0.007503 -0.005958 0.002987 -0.026439 -0.023077 -0.015078 -0.000072 -0.000806 0.016779 -0.007123 0.010494 -0.001314 -0.017821 0.035101
*dt_17 0.037246 -0.047621 0.104594 0.018420 -0.060620 0.095683 -0.051457 0.214694 0.090419 0.010821 -0.089862 0.018788 -0.032448 0.025915 -0.079209 -0.007820 -0.083700 -0.006151 -0.060751 -0.088989 0.040078 -0.054312 -0.135927 0.087633 0.020714 0.118998 0.015448 0.050100 0.034777 0.002765 0.026979 0.028010 0.009369 -0.045431 0.139676 -0.104039 0.027817 -0.020705 -0.017084 0.030724 0.005482 -0.042696 0.015169 0.060504 -0.098936 -0.073740 0.055856 -0.031759 0.026833 -0.028887 -0.039471 0.071219 0.088873 -0.008535 0.012000 0.042509 -0.001245 -0.023520 0.022470 -0.081205 -0.034382 0.006422 -0.037870 -0.114729 -0.044421 -0.021974 0.032180 -0.055081 -0.060515 0.099098 -0.022118 0.041933 0.029574 0.041850 0.008062 -0.020499 -0.025117 0.031095 -0.004069 0.054400 -0.097547 0.121461 -0.034642 0.013460 -0.044557 0.038650 -0.043802 -0.027902 0.025627 -0.103783 -0.080228 -0.062099 -0.005641 0.012847 0.065920 -0.026658 0.039715 -0.021234 -0.069331 0.120655
*dt_18 0.025009 -0.026980 0.062732 0.010482 -0.030460 0.048554 -0.028047 0.117341 0.048492 0.003984 -0.043831 0.010551 -0.014976 0.015818 -0.048396 0.000316 -0.043413 -0.006608 -0.033825 -0.046408 0.024503 -0.025482 -0.077232 0.054664 0.010106 0.072065 0.010890 0.028103 0.019214 0.001662 0.019511 0.014165 0.007587 -0.026952 0.078586 -0.056592 0.013516 -0.011005 -0.004366 0.021614 -0.000055 -0.020112 0.008772 0.040795 -0.049731 -0.045864 0.029683 -0.015013 0.008326 -0.009582 -0.023221 0.041749 0.047968 -0.001326 0.005840 0.017586 0.001320 -0.008565 0.014830 -0.047185 -0.019721 0.004804 -0.022520 -0.063292 -0.019934 -0.007852 0.013276 -0.037308 -0.030500 0.051151 -0.010123 0.019512 0.015257 0.020144 -0.000530 -0.009866 -0.011432 0.017817 -0.001372 0.024389 -0.056002 0.072121 -0.019343 0.006007 -0.018607 0.022192 -0.019759 -0.010318 0.013375 -0.052124 -0.044905 -0.036071 -0.006139 0.003593 0.037066 -0.016577 0.017670 -0.004492 -0.036640 0.063476
*dt_19 0.169559 -0.245315 0.506359 0.086242 -0.257873 0.431339 -0.224136 0.994524 0.408296 0.052985 -0.401325 0.095033 -0.136445 0.105280 -0.380658 -0.014361 -0.377043 -0.045240 -0.257227 -0.429414 0.200068 -0.251545 -0.614345 0.434216 0.081061 0.564562 0.084399 0.210069 0.153450 -0.003906 0.126961 0.109442 0.040573 -0.197881 0.638406 -0.471295 0.150705 -0.090265 -0.073286 0.153000 0.006560 -0.186833 0.084391 0.301742 -0.434996 -0.360024 0.272401 -0.160346 0.105470 -0.110620 -0.187709 0.322449 0.430530 -0.023167 0.033803 0.188576 -0.012657 -0.103615 0.093700 -0.361526 -0.167096 0.014376 -0.162904 -0.513631 -0.184142 -0.086421 0.153216 -0.273482 -0.282987 0.440289 -0.105903 0.202483 0.121850 0.186759 0.029527 -0.101846 -0.116123 0.157746 -0.030653 0.233924 -0.472990 0.590486 -0.148505 0.046858 -0.198860 0.186357 -0.208172 -0.113343 0.110939 -0.464061 -0.383970 -0.268540 -0.034730 0.068850 0.304049 -0.145634 0.181161 -0.079008 -0.333990 0.543758
*dt_20 0.070513 -0.099004 0.204207 0.033261 -0.103061 0.175577 -0.088104 0.395875 0.165693 0.023965 -0.159505 0.034106 -0.056382 0.044860 -0.154763 -0.011965 -0.148633 -0.020803 -0.098766 -0.172032 0.072288 -0.097605 -0.237886 0.166815 0.028612 0.225830 0.031919 0.079137 0.065558 -0.001581 0.052068 0.041749 0.018582 -0.075769 0.254998 -0.189061 0.059827 -0.031898 -0.022805 0.061998 -0.002341 -0.069883 0.037521 0.119844 -0.169232 -0.139942 0.109885 -0.058091 0.042255 -0.048495 -0.071832 0.122522 0.172156 -0.006310 0.012193 0.076099 -0.000307 -0.045664 0.039818 -0.145553 -0.062821 0.001431 -0.059135 -0.209070 -0.074986 -0.038761 0.057022 -0.110188 -0.104828 0.169210 -0.041825 0.084362 0.042440 0.071185 0.007290 -0.039210 -0.043680 0.059640 -0.009332 0.091143 -0.185891 0.232643 -0.051597 0.025989 -0.075401 0.068251 -0.077020 -0.045081 0.039428 -0.184349 -0.145631 -0.103949 -0.016016 0.023855 0.125009 -0.059850 0.070065 -0.033019 -0.125543 0.214619
*dt_21 0.232652 -0.316823 0.688070 0.122837 -0.349379 0.581535 -0.295334 1.338485 0.562095 0.059326 -0.542885 0.123249 -0.189722 0.132080 -0.511492 -0.035013 -0.516153 -0.062237 -0.339628 -0.574206 0.269887 -0.336065 -0.826446 0.571576 0.109676 0.771495 0.114095 0.282638 0.211795 -0.001875 0.170458 0.153823 0.063640 -0.262285 0.863774 -0.641644 0.201812 -0.112222 -0.089895 0.206284 0.005553 -0.254488 0.121064 0.406680 -0.592327 -0.484875 0.372283 -0.218859 0.144535 -0.155010 -0.246484 0.430691 0.571260 -0.044257 0.052490 0.251120 -0.010748 -0.141968 0.123985 -0.495762 -0.218378 0.027027 -0.209653 -0.692989 -0.257312 -0.118417 0.203958 -0.374083 -0.376654 0.582988 -0.144212 0.279875 0.159768 0.265367 0.042297 -0.143046 -0.152388 0.217008 -0.036828 0.312936 -0.637623 0.788899 -0.194555 0.068765 -0.266308 0.255324 -0.279954 -0.149563 0.147918 -0.608933 -0.504997 -0.361355 -0.054047 0.095219 0.416285 -0.188422 0.256005 -0.106780 -0.451381 0.731236
*dt_22 0.054692 -0.078214 0.173528 0.029986 -0.091242 0.153426 -0.074330 0.339719 0.144441 0.019264 -0.138459 0.033576 -0.044685 0.036071 -0.136188 -0.009625 -0.128144 -0.010939 -0.083967 -0.148057 0.071979 -0.088556 -0.213993 0.141800 0.023117 0.196586 0.030715 0.073352 0.048472 -0.003864 0.046601 0.033773 0.011144 -0.066216 0.224930 -0.161180 0.053844 -0.025578 -0.023265 0.055427 0.001850 -0.059772 0.034211 0.103250 -0.149967 -0.121729 0.091759 -0.050649 0.042940 -0.033551 -0.059662 0.114094 0.144753 -0.007274 0.013229 0.064383 -0.005564 -0.037571 0.031793 -0.124841 -0.055451 0.004723 -0.055881 -0.178920 -0.066693 -0.031899 0.048071 -0.093821 -0.090702 0.150477 -0.039815 0.070303 0.045094 0.068228 0.006311 -0.038067 -0.039613 0.051348 -0.008539 0.077041 -0.162148 0.200171 -0.054050 0.022978 -0.066358 0.067368 -0.071288 -0.039788 0.035960 -0.161239 -0.130630 -0.090330 -0.012449 0.025837 0.101984 -0.049577 0.065840 -0.024374 -0.114221 0.185641
*dt_23 0.051266 -0.070179 0.137700 0.025498 -0.068956 0.119145 -0.058259 0.276635 0.111444 0.009375 -0.113830 0.021769 -0.038356 0.029055 -0.108897 -0.006472 -0.102761 -0.017641 -0.072407 -0.119261 0.051568 -0.066968 -0.167541 0.121832 0.024784 0.154013 0.023047 0.061264 0.044866 -0.004389 0.038402 0.026279 0.013639 -0.050320 0.183052 -0.137524 0.039451 -0.020035 -0.017869 0.045539 -0.003404 -0.056379 0.023557 0.089049 -0.125621 -0.105567 0.074390 -0.048653 0.034086 -0.034936 -0.048742 0.091616 0.119689 -0.006561 0.010842 0.049454 -0.006091 -0.034816 0.027238 -0.101034 -0.043979 0.002610 -0.047534 -0.145725 -0.052220 -0.029528 0.047619 -0.080817 -0.077547 0.122730 -0.024733 0.057388 0.035243 0.058201 0.006755 -0.027779 -0.029627 0.047128 -0.004580 0.067511 -0.132428 0.169571 -0.044663 0.019571 -0.054709 0.047491 -0.055320 -0.034149 0.034273 -0.129920 -0.105146 -0.079430 -0.006933 0.023439 0.091763 -0.045298 0.055343 -0.025530 -0.090233 0.151885
*dt_24 0.034693 -0.047805 0.096409 0.019430 -0.046054 0.083624 -0.039126 0.184141 0.077187 0.009483 -0.071369 0.021494 -0.027680 0.019006 -0.073020 -0.000774 -0.070447 -0.008626 -0.049437 -0.078378 0.035966 -0.044406 -0.111800 0.079185 0.014385 0.102533 0.013615 0.038598 0.029818 -0.002953 0.019819 0.019480 0.007092 -0.037195 0.123030 -0.090109 0.030408 -0.019151 -0.008317 0.029995 0.004122 -0.037976 0.020849 0.058332 -0.085334 -0.068762 0.048041 -0.032888 0.017280 -0.023136 -0.031968 0.063299 0.078054 -0.002501 0.010376 0.036088 -0.003991 -0.018743 0.019510 -0.062876 -0.032808 0.003999 -0.026514 -0.091667 -0.030292 -0.011924 0.029372 -0.047973 -0.046951 0.079986 -0.019356 0.040870 0.018980 0.034030 0.010151 -0.015382 -0.025585 0.028186 -0.005076 0.043608 -0.087096 0.110538 -0.028229 0.007631 -0.040454 0.032853 -0.035599 -0.023803 0.017345 -0.079409 -0.070738 -0.048472 -0.005083 0.016927 0.057319 -0.027270 0.032257 -0.010170 -0.059075 0.094936
*dt_25 0.004522 -0.007840 0.023618 0.002301 -0.011906 0.018656 -0.014380 0.052111 0.023535 0.003868 -0.016359 -0.000628 -0.005671 0.008024 -0.018478 -0.005634 -0.021281 -0.000781 -0.013902 -0.016669 0.007436 -0.013266 -0.030204 0.022684 0.008453 0.030233 0.005975 0.014275 0.002408 0.003669 0.002644 0.006280 -0.000100 -0.013530 0.028620 -0.018876 0.012060 -0.002809 -0.006488 0.012072 0.001788 -0.008866 0.001447 0.013964 -0.019574 -0.021471 0.016891 -0.009812 0.000420 -0.004470 -0.010896 0.019402 0.023461 -0.003183 0.006624 0.005389 -0.004804 -0.003080 0.009231 -0.017305 -0.005174 -0.002219 -0.006938 -0.023010 -0.008416 -0.002949 0.008305 -0.008250 -0.011880 0.025383 -0.002171 0.010247 0.003866 0.012192 0.001805 -0.006136 -0.004233 0.007670 -0.000494 0.007512 -0.019062 0.026286 -0.002865 0.001500 -0.005968 0.004736 -0.009845 -0.009294 0.010004 -0.023320 -0.019801 -0.012711 -0.000944 0.002939 0.017263 -0.003968 0.011932 -0.000251 -0.016909 0.029026
*dt_26 0.057858 -0.081858 0.185071 0.028885 -0.095326 0.157822 -0.081165 0.359196 0.152627 0.021602 -0.142409 0.036008 -0.049981 0.035231 -0.144180 -0.013318 -0.138166 -0.016268 -0.098273 -0.159179 0.069435 -0.096881 -0.220631 0.155241 0.032959 0.205573 0.028614 0.076220 0.060841 0.001224 0.045813 0.044470 0.014233 -0.075957 0.231671 -0.175094 0.048877 -0.026318 -0.026364 0.055301 -0.002897 -0.064042 0.029818 0.111930 -0.163902 -0.132576 0.097322 -0.061181 0.035144 -0.042824 -0.064552 0.112977 0.156019 -0.009049 0.009136 0.066140 -0.005955 -0.043062 0.029093 -0.134014 -0.055916 0.001890 -0.061554 -0.186467 -0.063656 -0.031827 0.057784 -0.103861 -0.099939 0.156897 -0.037516 0.078764 0.038528 0.069601 0.009455 -0.037386 -0.040581 0.060427 -0.008136 0.084789 -0.172654 0.208836 -0.052092 0.020166 -0.074832 0.063530 -0.076285 -0.045130 0.042189 -0.169365 -0.134192 -0.093199 -0.017758 0.020412 0.110815 -0.052735 0.063554 -0.029216 -0.115537 0.200385
*dt_27 0.118535 -0.170721 0.355972 0.059012 -0.185895 0.306234 -0.152308 0.699080 0.291014 0.034977 -0.282646 0.069276 -0.102598 0.076537 -0.266398 -0.018277 -0.266554 -0.026230 -0.186428 -0.297465 0.142347 -0.182326 -0.434598 0.306018 0.051719 0.402283 0.061348 0.147996 0.111983 -0.000523 0.086260 0.079175 0.031267 -0.143420 0.452044 -0.337347 0.108955 -0.064270 -0.048940 0.111916 -0.002500 -0.129326 0.065766 0.209748 -0.316301 -0.258322 0.188332 -0.114152 0.073954 -0.076130 -0.129372 0.226035 0.297779 -0.016644 0.028441 0.124910 -0.010157 -0.070018 0.069199 -0.258012 -0.111889 0.013296 -0.116533 -0.369943 -0.132344 -0.058832 0.106078 -0.197826 -0.193060 0.306665 -0.080590 0.146062 0.087878 0.133258 0.017155 -0.075936 -0.079464 0.110255 -0.025133 0.160960 -0.329919 0.411179 -0.105928 0.036820 -0.138105 0.136036 -0.143081 -0.076306 0.077492 -0.321527 -0.266706 -0.188592 -0.023154 0.051118 0.214384 -0.105053 0.128029 -0.060335 -0.233903 0.387136
*dt_28 0.057545 -0.080449 0.182617 0.025550 -0.095612 0.157937 -0.074586 0.357221 0.150155 0.011980 -0.136260 0.030218 -0.045850 0.035196 -0.137222 -0.011424 -0.130524 -0.014422 -0.095821 -0.153931 0.072869 -0.086004 -0.217957 0.156234 0.024040 0.197247 0.031553 0.075980 0.051014 -0.001545 0.039714 0.034848 0.015637 -0.074875 0.231885 -0.163967 0.052433 -0.031536 -0.027656 0.052958 0.003467 -0.060663 0.031760 0.110482 -0.150366 -0.127604 0.091357 -0.052943 0.040101 -0.036745 -0.062016 0.111927 0.152404 -0.014100 0.015878 0.066156 -0.003422 -0.042509 0.036892 -0.125707 -0.056903 0.001308 -0.061156 -0.186271 -0.061861 -0.028211 0.053277 -0.100394 -0.099754 0.156571 -0.041125 0.072527 0.046932 0.066716 0.016069 -0.035609 -0.036800 0.050859 -0.015260 0.083527 -0.165755 0.205557 -0.052740 0.017406 -0.069959 0.070369 -0.077825 -0.043380 0.036509 -0.164062 -0.135121 -0.094128 -0.011422 0.025775 0.107272 -0.048313 0.064319 -0.027533 -0.113880 0.188162
*dt_29 0.318735 -0.453755 0.953962 0.162861 -0.488180 0.817538 -0.413080 1.865443 0.773973 0.089655 -0.738722 0.170896 -0.262276 0.196557 -0.726567 -0.039108 -0.708583 -0.072270 -0.488474 -0.789023 0.372826 -0.465798 -1.147109 0.796400 0.155173 1.063133 0.161463 0.391657 0.296803 -0.011751 0.235718 0.211096 0.084362 -0.366954 1.193448 -0.886433 0.272547 -0.163167 -0.122063 0.289688 0.008403 -0.338379 0.160666 0.564135 -0.825588 -0.668962 0.512148 -0.294980 0.211605 -0.208038 -0.338420 0.594182 0.791491 -0.050293 0.078524 0.354305 -0.016183 -0.208270 0.173142 -0.683574 -0.296791 0.033902 -0.298416 -0.962503 -0.362811 -0.173081 0.293756 -0.514770 -0.527701 0.818102 -0.206439 0.382113 0.218695 0.363513 0.060347 -0.183106 -0.208626 0.296053 -0.055682 0.442989 -0.883355 1.094715 -0.263640 0.087476 -0.370648 0.348942 -0.392951 -0.209121 0.199004 -0.864091 -0.703891 -0.497104 -0.062082 0.124494 0.565254 -0.269351 0.346691 -0.140785 -0.621971 1.021165
*dt_30 0.045209 -0.063035 0.121374 0.022820 -0.065521 0.108522 -0.052728 0.249340 0.103916 0.008290 -0.102200 0.023471 -0.033050 0.027198 -0.098320 -0.005605 -0.097646 -0.010601 -0.067785 -0.102874 0.051202 -0.063660 -0.149006 0.100764 0.022781 0.144907 0.015810 0.054663 0.042041 0.000319 0.031918 0.027530 0.013566 -0.053165 0.157107 -0.118697 0.034639 -0.018399 -0.019523 0.041380 0.001288 -0.043380 0.018764 0.073616 -0.105776 -0.088666 0.070025 -0.040439 0.025216 -0.024795 -0.045207 0.080766 0.103123 -0.002175 0.008289 0.044922 -0.002154 -0.026116 0.025468 -0.090658 -0.037770 -0.000272 -0.044195 -0.131214 -0.050257 -0.017577 0.034003 -0.069165 -0.073396 0.106958 -0.022262 0.046738 0.030631 0.046997 0.001716 -0.020069 -0.033357 0.039860 -0.008281 0.054044 -0.115066 0.148480 -0.041050 0.014009 -0.053315 0.046178 -0.049011 -0.024818 0.022902 -0.114566 -0.089289 -0.062010 -0.008901 0.016588 0.074292 -0.038990 0.048294 -0.015116 -0.077517 0.139055
*dt_31 0.079291 -0.120653 0.246174 0.041788 -0.130083 0.208744 -0.108550 0.497447 0.203373 0.023473 -0.194627 0.042821 -0.069201 0.057884 -0.186773 -0.006643 -0.187931 -0.013625 -0.134367 -0.214465 0.091481 -0.118692 -0.307929 0.215389 0.037792 0.285154 0.042393 0.101537 0.072614 -0.004772 0.056601 0.053118 0.021941 -0.097965 0.320951 -0.229747 0.069204 -0.038428 -0.034068 0.072458 0.006848 -0.090461 0.043901 0.144461 -0.216306 -0.176364 0.128689 -0.083247 0.051232 -0.051699 -0.087454 0.163942 0.208020 -0.018205 0.015518 0.093870 -0.006744 -0.050183 0.039084 -0.179989 -0.079063 0.007156 -0.083183 -0.252944 -0.088325 -0.038122 0.070393 -0.135146 -0.142914 0.216327 -0.054924 0.104687 0.058981 0.088929 0.010415 -0.046208 -0.052543 0.074937 -0.018927 0.114615 -0.230866 0.293464 -0.075661 0.027469 -0.095637 0.092757 -0.105634 -0.054148 0.056356 -0.226994 -0.187000 -0.132011 -0.014532 0.035003 0.147642 -0.074752 0.098312 -0.043862 -0.164314 0.271927
*dt_32 0.008942 -0.004621 0.020062 0.005970 -0.004816 0.013194 -0.003570 0.035226 0.016994 0.005312 -0.013162 0.003795 -0.001585 0.000164 -0.014529 -0.004650 -0.014528 0.002773 -0.004935 -0.012132 0.007628 -0.006072 -0.021685 0.015123 -0.000276 0.021882 0.000076 0.003543 0.003624 0.004344 0.000707 0.003349 -0.002064 -0.003531 0.021412 -0.012988 0.001797 0.001614 -0.004026 0.006559 0.001944 -0.006564 0.001375 0.011624 -0.015679 -0.009595 0.006970 -0.007092 0.003700 -0.007038 -0.010573 0.011546 0.018961 -0.003435 0.004934 0.010656 0.002117 -0.002895 0.004821 -0.015901 -0.004639 0.000329 -0.001307 -0.021697 -0.004456 -0.003690 0.009340 -0.012985 -0.011120 0.010970 -0.006912 0.002987 0.001806 0.011174 -0.002916 -0.002132 -0.003173 0.005806 0.002578 0.012412 -0.014285 0.023773 -0.000661 0.003119 -0.011109 0.011179 -0.003226 -0.000463 0.005987 -0.014246 -0.016324 -0.013134 0.002164 -0.001914 0.007476 -0.002110 0.007689 -0.005936 -0.010335 0.016312
*dt_33 0.023857 -0.027494 0.063832 0.010477 -0.034690 0.050641 -0.026446 0.112334 0.050595 0.001409 -0.050748 0.007525 -0.019438 0.010560 -0.049015 -0.005695 -0.047616 -0.003309 -0.027183 -0.052261 0.027298 -0.032278 -0.074450 0.051856 0.014045 0.068210 0.008630 0.021141 0.019357 -0.005025 0.011949 0.015190 0.003569 -0.019747 0.079617 -0.054359 0.019690 -0.009466 -0.003234 0.021938 0.003241 -0.024149 0.005871 0.037604 -0.052089 -0.038901 0.030041 -0.016017 0.012140 -0.012858 -0.017228 0.041419 0.054635 -0.003052 0.001753 0.022976 -0.003938 -0.016414 0.006031 -0.044261 -0.016045 -0.002363 -0.024055 -0.062158 -0.020407 -0.013125 0.017426 -0.028743 -0.036106 0.051676 -0.014977 0.024684 0.012833 0.020998 0.008396 -0.010010 -0.010516 0.018772 -0.007447 0.022215 -0.056061 0.072642 -0.015613 0.011045 -0.023497 0.023657 -0.020306 -0.014178 0.017907 -0.057944 -0.042457 -0.034726 -0.000828 0.009140 0.039048 -0.021049 0.026164 -0.009712 -0.036123 0.061261
*dt_34 0.011922 -0.013881 0.022748 0.007712 -0.009675 0.018879 -0.011768 0.043741 0.022887 0.005085 -0.019666 0.001736 -0.005353 0.002183 -0.021886 -0.002091 -0.015989 -0.002787 -0.009827 -0.015912 0.012565 -0.015194 -0.034194 0.019891 0.004994 0.026467 0.000446 0.011147 0.002354 0.001295 0.008844 0.001403 0.005416 -0.010448 0.030509 -0.021049 0.011736 -0.005362 -0.005933 0.006818 -0.001783 -0.011542 0.003115 0.011156 -0.023824 -0.021797 0.016571 -0.003372 0.006236 -0.004351 -0.013594 0.014396 0.017371 0.002918 0.002564 0.005197 -0.005176 -0.008727 0.004071 -0.020725 -0.008724 -0.000332 -0.010565 -0.028847 -0.010838 -0.001838 0.005864 -0.012651 -0.015220 0.020133 -0.004192 0.006316 0.004328 0.008828 0.006245 -0.001403 -0.005844 0.002771 -0.001321 0.013812 -0.018420 0.032837 -0.006967 -0.001319 -0.013162 0.010789 -0.011448 -0.002785 0.004344 -0.024952 -0.020755 -0.012074 -0.000514 0.006224 0.013931 -0.008733 0.009864 -0.007872 -0.017703 0.022435
*dt_35 0.011793 -0.022522 0.046012 0.008079 -0.018341 0.039912 -0.023998 0.091685 0.040721 0.000896 -0.032112 0.003018 -0.008293 0.012902 -0.030658 -0.003995 -0.030255 -0.000874 -0.020512 -0.041278 0.015503 -0.026840 -0.055070 0.042845 0.005323 0.049291 0.005712 0.017555 0.013794 0.001839 0.011567 0.013798 0.003511 -0.015504 0.053200 -0.039514 0.009985 -0.008723 -0.006371 0.017429 -0.001710 -0.019817 0.006837 0.031233 -0.034971 -0.035674 0.020079 -0.018187 0.009998 -0.012536 -0.012315 0.033278 0.043047 -0.002940 -0.001523 0.014500 -0.000751 -0.011970 0.011068 -0.029479 -0.012640 -0.002129 -0.010291 -0.049705 -0.017071 -0.003423 0.017080 -0.025875 -0.025680 0.036808 -0.010263 0.013660 0.012818 0.012896 0.002229 -0.006500 -0.010852 0.018957 0.001049 0.018032 -0.041018 0.051688 -0.015784 0.002980 -0.017868 0.014548 -0.022186 -0.010793 0.014407 -0.039125 -0.030448 -0.027288 -0.001796 0.001190 0.023648 -0.010829 0.016996 -0.006313 -0.030004 0.049441
*dt_36 0.011643 -0.013529 0.035535 0.009393 -0.017349 0.029013 -0.013477 0.065332 0.026672 0.003106 -0.031185 0.003118 -0.007790 0.003660 -0.022761 0.002710 -0.030082 -0.007251 -0.021432 -0.028130 0.010437 -0.019956 -0.044951 0.027142 0.006081 0.037849 0.001260 0.010618 0.012482 -0.005081 0.010154 0.003635 0.006475 -0.013926 0.044655 -0.027661 0.009811 -0.009726 -0.000212 0.014668 0.002720 -0.011085 0.007735 0.025822 -0.028938 -0.029754 0.014003 -0.015758 0.009334 -0.012143 -0.009711 0.021277 0.025460 -0.003390 0.006006 0.017267 -0.003551 -0.010173 0.006828 -0.027565 -0.015847 0.002284 -0.016209 -0.032781 -0.012739 -0.002378 0.012425 -0.022045 -0.020481 0.031711 -0.005618 0.011485 0.009197 0.017067 -0.001482 -0.006389 -0.010055 0.010915 0.000279 0.019486 -0.029786 0.035604 -0.009452 0.002787 -0.009750 0.013044 -0.019130 -0.004466 0.005251 -0.033372 -0.028849 -0.018060 0.002231 -0.000205 0.017368 -0.007429 0.015605 -0.010384 -0.022190 0.034411
*dt_37 0.006123 -0.012016 0.028339 0.007664 -0.021531 0.028986 -0.015540 0.067618 0.024931 0.004240 -0.028249 0.002391 -0.008054 0.002377 -0.024425 0.000422 -0.029056 -0.001505 -0.017828 -0.025802 0.007701 -0.015975 -0.039938 0.026385 0.002313 0.032989 0.005771 0.013288 0.010707 -0.003626 0.011119 0.003940 0.007838 -0.007597 0.044184 -0.025570 0.011989 -0.009456 -0.000833 0.007127 -0.004286 -0.007228 0.008532 0.015599 -0.024762 -0.023522 0.021959 -0.009709 0.009733 -0.012127 -0.015058 0.024342 0.032015 -0.002986 0.000414 0.008699 0.001017 -0.003318 0.001772 -0.025289 -0.014303 0.000125 -0.005337 -0.030956 -0.014385 -0.008216 0.010142 -0.019278 -0.012909 0.023159 -0.010569 0.010173 0.006762 0.013058 -0.001309 -0.010986 -0.010468 0.012376 -0.000732 0.010574 -0.028681 0.038121 -0.008238 0.007189 -0.014078 0.016217 -0.016715 -0.002996 0.011765 -0.031290 -0.028008 -0.014629 0.002418 0.006382 0.022865 -0.005222 0.007544 -0.001814 -0.018535 0.033936
*dt_38 0.017957 -0.025578 0.064603 0.014672 -0.033340 0.048159 -0.026998 0.120106 0.049806 0.006283 -0.046545 0.013795 -0.019261 0.016758 -0.045665 -0.003887 -0.045308 -0.002727 -0.036057 -0.056947 0.025650 -0.029177 -0.070991 0.048414 0.009018 0.069105 0.010168 0.023764 0.020066 0.002475 0.011892 0.017233 0.002812 -0.019208 0.075613 -0.060420 0.018528 -0.006862 -0.009451 0.019736 0.002699 -0.017853 0.007266 0.040022 -0.049133 -0.045352 0.033470 -0.023886 0.017104 -0.018114 -0.023368 0.037197 0.046951 0.000357 0.006598 0.019969 -0.003635 -0.017522 0.016354 -0.047081 -0.014784 0.000592 -0.018543 -0.063122 -0.026684 -0.015370 0.018431 -0.035924 -0.035860 0.051375 -0.014050 0.027052 0.018055 0.025101 0.004756 -0.009846 -0.010998 0.015901 -0.002175 0.027788 -0.052932 0.074178 -0.012450 0.006183 -0.021286 0.021656 -0.025316 -0.015250 0.008304 -0.052175 -0.042599 -0.034156 -0.002305 0.003658 0.036988 -0.015468 0.021550 -0.005738 -0.044533 0.070984
*dt_39 0.004864 -0.001604 -0.000159 -0.000144 0.000312 0.002730 -0.003666 0.006915 0.006808 -0.003198 0.001820 0.004506 -0.001671 -0.002987 -0.003778 -0.003939 -0.001181 -0.004768 0.003268 -0.000113 -0.003346 0.002485 -0.000044 0.006828 -0.002900 -0.001662 0.001789 0.004664 0.004500 -0.003388 0.002669 0.000148 -0.000793 0.003776 0.007010 -0.001378 -0.002321 -0.002561 -0.002527 0.004253 -0.001409 0.000418 -0.002859 0.000790 -0.005003 -0.001228 0.002786 0.001845 -0.000668 -0.003817 0.001987 0.001363 0.001025 -0.002913 0.004089 0.003526 -0.001471 -0.000764 -0.001676 0.002237 0.002159 -0.003718 0.003807 0.001786 0.002372 0.001714 0.000189 -0.001390 -0.003319 -0.001111 -0.002857 0.000846 -0.001508 -0.002674 -0.004262 -0.002238 -0.003494 -0.002632 -0.002828 -0.003235 -0.003495 0.001568 0.001577 -0.000623 -0.003095 -0.000237 -0.004589 -0.003185 -0.003368 -0.001252 -0.002044 0.002288 -0.002458 0.005095 0.000484 -0.003098 -0.001554 0.002802 0.000285 0.002484
*dt_40 0.081376 -0.121392 0.270972 0.047399 -0.128492 0.233981 -0.120952 0.524330 0.219743 0.025276 -0.203979 0.039248 -0.077886 0.049660 -0.198573 -0.013521 -0.203154 -0.027159 -0.132793 -0.228345 0.106080 -0.126867 -0.325930 0.226444 0.040323 0.300595 0.045466 0.111661 0.083492 -0.002642 0.071220 0.064265 0.021487 -0.106158 0.340691 -0.248212 0.084332 -0.042774 -0.044958 0.076626 0.005292 -0.103645 0.042022 0.156119 -0.234449 -0.194793 0.149478 -0.081597 0.059277 -0.062433 -0.092067 0.166440 0.224656 -0.011099 0.021430 0.094195 0.002400 -0.059070 0.049037 -0.194086 -0.085700 0.002850 -0.078948 -0.277274 -0.096513 -0.051359 0.076420 -0.144211 -0.140793 0.234299 -0.063201 0.115098 0.059551 0.096870 0.018942 -0.061477 -0.057975 0.089386 -0.011146 0.122151 -0.252043 0.309901 -0.071786 0.030604 -0.099452 0.090211 -0.110555 -0.060811 0.059661 -0.248586 -0.209892 -0.149618 -0.018668 0.044343 0.171643 -0.075364 0.099683 -0.045455 -0.175552 0.289578
*dt_41 0.038745 -0.061438 0.122756 0.016695 -0.058681 0.103461 -0.058731 0.242130 0.098047 0.015295 -0.101195 0.025696 -0.033899 0.025356 -0.092711 -0.010455 -0.089192 -0.009474 -0.060055 -0.100319 0.044021 -0.060674 -0.149136 0.104837 0.021579 0.143897 0.023199 0.050527 0.038081 -0.003342 0.032150 0.026520 0.007768 -0.048055 0.156114 -0.117105 0.037021 -0.021706 -0.016035 0.034455 -0.001381 -0.048679 0.026093 0.073939 -0.111789 -0.093171 0.064233 -0.035142 0.022590 -0.027953 -0.040416 0.076046 0.104160 -0.003064 0.008371 0.040579 -0.007566 -0.026436 0.017947 -0.085601 -0.041984 -0.000385 -0.041435 -0.124578 -0.043314 -0.020962 0.035660 -0.067000 -0.069962 0.108741 -0.031852 0.052708 0.027671 0.044678 0.003762 -0.029539 -0.032775 0.039702 -0.006886 0.060972 -0.116672 0.147156 -0.035213 0.016119 -0.052468 0.045491 -0.048100 -0.026704 0.029126 -0.110163 -0.091788 -0.064686 -0.003634 0.012908 0.079969 -0.036640 0.050965 -0.023357 -0.082270 0.131370
*dt_42 0.069145 -0.107580 0.222401 0.035868 -0.112231 0.192643 -0.092308 0.429152 0.182682 0.019041 -0.172585 0.040729 -0.063665 0.048646 -0.167951 -0.006344 -0.169700 -0.021798 -0.110661 -0.186785 0.092213 -0.112699 -0.268195 0.189621 0.038800 0.250352 0.033662 0.094778 0.067556 -0.003883 0.056113 0.045760 0.024639 -0.087277 0.276567 -0.207205 0.064964 -0.037140 -0.033533 0.072299 -0.004052 -0.081516 0.034307 0.126571 -0.191115 -0.160262 0.117275 -0.066177 0.050706 -0.051432 -0.083038 0.139675 0.183378 -0.016313 0.021241 0.083012 0.000670 -0.046775 0.038904 -0.159371 -0.068260 0.006460 -0.074680 -0.225935 -0.084984 -0.039534 0.063794 -0.117526 -0.115991 0.192862 -0.042682 0.091295 0.048903 0.081015 0.018270 -0.048817 -0.042923 0.062871 -0.011983 0.103117 -0.206152 0.252280 -0.065815 0.017562 -0.087215 0.081737 -0.094397 -0.043973 0.043579 -0.204638 -0.159955 -0.118953 -0.013523 0.035381 0.132330 -0.063096 0.078107 -0.038929 -0.142149 0.237252
*dt_43 0.028683 -0.041063 0.086412 0.019535 -0.040386 0.079230 -0.036079 0.171474 0.071900 0.006474 -0.070542 0.011638 -0.025422 0.021110 -0.065025 -0.007743 -0.070308 -0.001938 -0.047597 -0.076659 0.034358 -0.039547 -0.109089 0.076195 0.017788 0.103600 0.012052 0.037768 0.029045 -0.002888 0.020233 0.017516 0.005609 -0.034042 0.115456 -0.079821 0.020908 -0.010040 -0.009952 0.029501 -0.001182 -0.030159 0.015994 0.055878 -0.080170 -0.062513 0.050099 -0.028662 0.022602 -0.015022 -0.033908 0.057529 0.075885 -0.009219 0.003540 0.035234 0.002997 -0.020764 0.018035 -0.064586 -0.032886 0.000902 -0.026871 -0.085453 -0.033997 -0.014780 0.028519 -0.047228 -0.050289 0.074856 -0.018161 0.038941 0.023287 0.033168 0.002394 -0.016320 -0.019227 0.025856 -0.009247 0.045547 -0.078760 0.103955 -0.025685 0.009558 -0.038454 0.034660 -0.031779 -0.017342 0.022692 -0.077138 -0.063993 -0.042524 -0.007491 0.012157 0.054081 -0.029163 0.033932 -0.011293 -0.058941 0.093725
*dt_44 0.012730 -0.023027 0.040255 0.009809 -0.021322 0.029147 -0.018767 0.072378 0.035538 -0.000301 -0.029786 0.008112 -0.013030 0.003180 -0.031934 0.002888 -0.032155 -0.006204 -0.017707 -0.030843 0.015994 -0.024058 -0.046271 0.035635 0.003643 0.044972 0.004073 0.016397 0.012040 0.004486 0.007835 0.006047 0.005508 -0.020306 0.054348 -0.039698 0.009203 -0.005785 -0.009937 0.010488 0.004698 -0.014958 0.008990 0.026559 -0.039113 -0.028044 0.025022 -0.013346 0.009701 -0.007946 -0.013249 0.025437 0.028419 -0.004792 -0.000710 0.015140 0.001551 -0.010989 0.004518 -0.023376 -0.012434 0.005979 -0.015791 -0.044139 -0.018912 -0.003411 0.009554 -0.020161 -0.022778 0.032602 -0.011712 0.011707 0.007125 0.012414 -0.002009 -0.005758 -0.007507 0.010912 -0.005529 0.019189 -0.036550 0.045285 -0.013859 0.001535 -0.014984 0.013987 -0.019000 -0.012405 0.008095 -0.032568 -0.031277 -0.025067 -0.003857 0.004573 0.023711 -0.009948 0.011245 -0.004383 -0.025204 0.039734
*dt_45 -0.000898 0.003342 0.003932 -0.002644 0.003055 0.002996 -0.003479 0.003860 -0.001286 0.002812 -0.003774 -0.003432 -0.004426 -0.000347 -0.004168 -0.004220 -0.000692 -0.005085 0.001034 -0.003935 -0.003652 -0.003620 -0.002508 0.004229 -0.000435 0.005762 0.004259 -0.003485 0.002542 -0.002027 0.000651 0.001854 0.003973 0.000155 0.008565 -0.000676 0.003654 -0.002809 0.002682 -0.000536 0.001506 -0.000706 -0.003672 0.005438 0.001637 -0.000875 -0.003127 0.001652 -0.002819 0.000338 -0.001192 0.005892 0.002406 -0.002903 0.003593 0.002951 0.004205 -0.005028 -0.001818 0.001870 -0.001915 0.003316 -0.005076 -0.006072 -0.000647 -0.004449 -0.001832 -0.006427 0.000095 -0.000747 -0.000170 0.002240 0.004496 0.001350 0.002555 -0.002846 0.003034 0.004988 -0.004544 0.001537 0.000227 0.001311 -0.003626 0.002026 -0.005556 0.002385 0.001881 -0.004982 -0.002555 0.000259 -0.002665 -0.003780 -0.003957 0.001714 -0.000729 -0.001046 -0.000182 0.001143 -0.001127 -0.000004
*dt_46 0.131863 -0.187196 0.397322 0.071345 -0.198336 0.340143 -0.178223 0.789660 0.329378 0.034676 -0.319939 0.072872 -0.109759 0.088472 -0.303136 -0.021206 -0.296129 -0.035087 -0.199133 -0.340633 0.157781 -0.197815 -0.480288 0.339810 0.060316 0.455755 0.067672 0.167708 0.123756 -0.005910 0.102081 0.084932 0.036945 -0.153597 0.514193 -0.369715 0.112217 -0.068852 -0.049610 0.127583 -0.003818 -0.145730 0.065026 0.236265 -0.351001 -0.286004 0.217961 -0.126920 0.085463 -0.086144 -0.145931 0.247973 0.336900 -0.017331 0.031677 0.149593 -0.004455 -0.084183 0.071004 -0.288278 -0.123150 0.009483 -0.119734 -0.404587 -0.153590 -0.069922 0.120118 -0.219481 -0.218502 0.343227 -0.083442 0.161533 0.091965 0.153420 0.029042 -0.082216 -0.084768 0.123969 -0.026010 0.186419 -0.376331 0.462983 -0.110906 0.048861 -0.156084 0.149775 -0.159659 -0.084005 0.090292 -0.362295 -0.297752 -0.211161 -0.026350 0.050429 0.245350 -0.116535 0.152943 -0.062424 -0.256717 0.434500
*dt_47 0.087755 -0.112365 0.250361 0.046236 -0.124740 0.212812 -0.112590 0.499413 0.203390 0.017416 -0.204140 0.044712 -0.070776 0.055394 -0.192271 -0.007502 -0.189920 -0.020047 -0.123720 -0.209488 0.094017 -0.131296 -0.300241 0.212664 0.035656 0.280622 0.041591 0.106242 0.078557 -0.006138 0.066137 0.057210 0.023094 -0.093832 0.315488 -0.234043 0.073901 -0.037652 -0.038517 0.073698 0.002330 -0.087688 0.049940 0.147029 -0.221764 -0.182407 0.130554 -0.074538 0.057005 -0.061778 -0.092887 0.164782 0.217117 -0.012285 0.025011 0.092000 0.000107 -0.059111 0.049143 -0.181947 -0.077778 0.008829 -0.076637 -0.261036 -0.094522 -0.041146 0.072851 -0.137498 -0.143287 0.213378 -0.056606 0.097609 0.053433 0.092632 0.017255 -0.050793 -0.060262 0.073677 -0.014719 0.117917 -0.228978 0.289779 -0.072393 0.024513 -0.094407 0.094871 -0.102673 -0.059338 0.059765 -0.232505 -0.182090 -0.136799 -0.019592 0.030906 0.159835 -0.076811 0.098808 -0.037107 -0.164757 0.272430
*dt_48 0.139162 -0.210568 0.433015 0.068626 -0.220793 0.367365 -0.183692 0.860089 0.352639 0.043249 -0.340735 0.076904 -0.118399 0.085517 -0.325060 -0.017779 -0.331276 -0.034374 -0.221062 -0.365788 0.166120 -0.215077 -0.529070 0.368991 0.066621 0.486366 0.079065 0.179443 0.136410 -0.001665 0.107922 0.099970 0.042049 -0.167119 0.551552 -0.400422 0.128173 -0.073825 -0.054987 0.131212 0.004494 -0.161923 0.075849 0.261056 -0.380897 -0.314402 0.230956 -0.131862 0.098208 -0.103564 -0.160046 0.277953 0.366929 -0.018379 0.030854 0.150944 -0.003877 -0.094274 0.085127 -0.306067 -0.143443 0.008805 -0.136835 -0.444267 -0.165415 -0.079536 0.132921 -0.240232 -0.242114 0.374609 -0.092593 0.178224 0.105238 0.158117 0.022373 -0.090407 -0.099430 0.138454 -0.026244 0.193677 -0.397580 0.503988 -0.129491 0.048848 -0.176346 0.160599 -0.183632 -0.098033 0.091041 -0.390019 -0.329732 -0.231871 -0.037784 0.061506 0.265755 -0.126119 0.155991 -0.075523 -0.285779 0.461955
*dt_49 0.028704 -0.041432 0.096760 0.012805 -0.050648 0.083782 -0.036732 0.186107 0.077923 0.013022 -0.080877 0.018288 -0.024127 0.020316 -0.072254 -0.000216 -0.075306 -0.007026 -0.049250 -0.079604 0.034859 -0.042993 -0.120052 0.078584 0.011226 0.110885 0.016799 0.042259 0.026278 0.002007 0.024004 0.025739 0.013897 -0.041984 0.121177 -0.094774 0.031530 -0.014741 -0.014207 0.028577 0.002909 -0.035092 0.016131 0.058022 -0.078808 -0.073078 0.054114 -0.028426 0.021456 -0.022602 -0.037187 0.059038 0.086231 -0.007328 0.007759 0.033917 -0.003622 -0.016288 0.016761 -0.070376 -0.029628 0.005782 -0.029460 -0.098876 -0.036227 -0.012998 0.033634 -0.048907 -0.056243 0.083407 -0.016000 0.042893 0.019242 0.033796 0.007677 -0.018041 -0.018885 0.033332 -0.009329 0.039527 -0.088613 0.114176 -0.023330 0.005850 -0.033027 0.032921 -0.037546 -0.019442 0.017535 -0.085773 -0.075030 -0.050379 -0.011770 0.009576 0.062229 -0.024670 0.039460 -0.011082 -0.061607 0.106195
*dt_50 0.009420 -0.009991 0.017559 0.001695 -0.009464 0.014669 -0.009161 0.038618 0.012762 0.006640 -0.019479 0.007904 -0.008206 0.004829 -0.015431 0.002865 -0.010022 -0.002687 -0.011067 -0.014605 0.008208 -0.011426 -0.025703 0.018095 0.001204 0.024053 0.006128 0.007535 0.002319 -0.001904 0.001247 0.008695 0.000788 -0.009350 0.018995 -0.019426 0.003811 0.001056 -0.000033 0.005300 0.004255 -0.008062 0.000264 0.009656 -0.020448 -0.016598 0.011994 -0.007581 0.006534 -0.003658 -0.005774 0.016417 0.012135 0.001938 -0.001814 0.007316 0.003927 0.001025 0.006286 -0.017622 -0.006063 -0.002258 -0.007955 -0.022360 -0.009356 -0.002316 0.007260 -0.008194 -0.009407 0.016716 -0.003468 0.009726 0.003106 0.002945 0.005368 -0.007152 -0.002558 0.002408 -0.003866 0.010432 -0.017637 0.017554 -0.008780 0.004107 -0.006692 0.007890 -0.002688 -0.000504 0.007190 -0.019422 -0.013894 -0.007556 -0.004877 -0.002075 0.010195 -0.000999 0.003202 -0.002898 -0.012933 0.024420
*dt_51 0.001275 -0.007514 0.015360 0.002113 -0.008344 0.006183 -0.000783 0.027727 0.012564 0.004742 -0.011068 -0.001663 -0.005134 -0.000564 -0.012807 -0.002026 -0.005194 0.003994 -0.010263 -0.012776 0.004089 -0.008660 -0.010202 0.006955 -0.001126 0.011509 -0.000189 0.009675 0.002383 0.004815 -0.001278 0.004869 0.003364 -0.009672 0.016745 -0.006533 0.002380 -0.001328 -0.003029 0.004400 -0.002135 -0.005637 0.005530 0.006197 -0.012702 -0.007350 0.006095 -0.000295 0.000335 -0.006135 -0.009167 0.005196 0.007672 0.000449 -0.002015 0.005532 0.004675 -0.004740 -0.001445 -0.006546 -0.006536 -0.002526 -0.005974 -0.014128 0.000242 0.000660 0.007872 -0.008211 -0.002688 0.008114 -0.001526 0.005105 -0.001312 -0.000180 0.002797 -0.004937 -0.005031 0.004727 -0.003503 0.003484 -0.015728 0.012276 -0.000933 0.000079 -0.005051 0.005775 -0.006036 -0.005684 0.004561 -0.007609 -0.011870 -0.002924 -0.002138 -0.001796 0.005627 -0.005612 0.009070 -0.000657 -0.010607 0.014531
*dt_52 0.164255 -0.233256 0.497621 0.087431 -0.247278 0.429077 -0.209092 0.974421 0.403890 0.052774 -0.388776 0.086797 -0.131894 0.098515 -0.376749 -0.019047 -0.374220 -0.041473 -0.257749 -0.419206 0.188366 -0.248148 -0.604476 0.416819 0.072509 0.552012 0.090914 0.203132 0.151431 -0.005355 0.126941 0.111662 0.043912 -0.194043 0.629995 -0.465745 0.140070 -0.086017 -0.067522 0.155781 0.003450 -0.177488 0.088763 0.294650 -0.431770 -0.355785 0.268522 -0.155462 0.111781 -0.110616 -0.176806 0.319235 0.418999 -0.027205 0.037387 0.178175 -0.011684 -0.101004 0.097712 -0.353302 -0.156522 0.012088 -0.155943 -0.503730 -0.184371 -0.092725 0.143924 -0.271090 -0.266260 0.430649 -0.103122 0.204647 0.110419 0.190130 0.032331 -0.098724 -0.116136 0.156783 -0.033185 0.223690 -0.454375 0.576553 -0.137733 0.057194 -0.190595 0.181027 -0.206673 -0.109279 0.108385 -0.454977 -0.367626 -0.268359 -0.034181 0.061541 0.300135 -0.135544 0.182894 -0.084632 -0.324894 0.537020
*dt_53 0.035518 -0.045249 0.096328 0.015683 -0.050233 0.080960 -0.045686 0.191937 0.078259 0.008064 -0.072413 0.016880 -0.031071 0.017466 -0.068949 -0.006328 -0.068746 -0.009243 -0.051984 -0.081663 0.036937 -0.050052 -0.120170 0.078468 0.016561 0.113007 0.013872 0.036118 0.026737 0.000630 0.024614 0.016378 0.005526 -0.033849 0.122035 -0.092498 0.030112 -0.013752 -0.016571 0.030101 -0.001532 -0.039055 0.018466 0.057474 -0.087805 -0.069782 0.047135 -0.028769 0.019019 -0.025345 -0.039135 0.062474 0.084651 -0.005707 0.006291 0.036945 -0.001076 -0.018504 0.021872 -0.070953 -0.029880 0.004735 -0.034406 -0.102899 -0.034450 -0.014429 0.033335 -0.055180 -0.052983 0.082494 -0.019652 0.043349 0.022616 0.040885 0.006567 -0.023890 -0.024758 0.029089 -0.006544 0.046435 -0.085027 0.109174 -0.028010 0.015082 -0.037828 0.035276 -0.040000 -0.026485 0.019612 -0.090987 -0.071244 -0.052395 -0.011135 0.009815 0.057753 -0.026282 0.040270 -0.012908 -0.064413 0.099083
*dt_54 0.091470 -0.121103 0.263817 0.050183 -0.135878 0.229630 -0.109860 0.515731 0.214807 0.024273 -0.210943 0.043824 -0.073630 0.057435 -0.201715 -0.013964 -0.194559 -0.019692 -0.132478 -0.216459 0.102409 -0.135545 -0.315416 0.227002 0.040741 0.296844 0.048651 0.111831 0.079653 0.001422 0.067233 0.060274 0.020707 -0.106918 0.333515 -0.241202 0.075580 -0.041663 -0.036147 0.076394 0.005383 -0.100106 0.048247 0.160445 -0.232613 -0.190506 0.141579 -0.083908 0.058290 -0.055952 -0.090084 0.166257 0.218571 -0.007932 0.019866 0.099948 -0.005853 -0.057119 0.046916 -0.183894 -0.083069 0.011721 -0.080996 -0.271256 -0.098901 -0.049648 0.082819 -0.142793 -0.147929 0.230374 -0.059313 0.108705 0.064411 0.095346 0.020689 -0.048176 -0.055162 0.082512 -0.014269 0.123668 -0.238666 0.298305 -0.077025 0.028314 -0.100581 0.098848 -0.107047 -0.059208 0.057398 -0.239083 -0.196129 -0.146276 -0.016196 0.040175 0.155934 -0.068038 0.102148 -0.047844 -0.168219 0.276542
*dt_55 0.026914 -0.036180 0.083261 0.017293 -0.046592 0.071816 -0.038453 0.169902 0.074603 0.003467 -0.064364 0.011422 -0.020468 0.018914 -0.066779 0.001202 -0.061323 -0.007663 -0.043890 -0.071306 0.032417 -0.047637 -0.108466 0.070421 0.015916 0.094007 0.011754 0.039309 0.025445 -0.000050 0.021122 0.020411 0.011209 -0.035893 0.109897 -0.080923 0.027197 -0.017047 -0.010230 0.025163 -0.002689 -0.028740 0.017488 0.055339 -0.072308 -0.062640 0.043328 -0.025277 0.015606 -0.023079 -0.029838 0.055213 0.073274 -0.007920 0.005743 0.033985 -0.003467 -0.020839 0.012735 -0.059991 -0.030122 -0.001413 -0.021933 -0.088216 -0.027430 -0.013932 0.024951 -0.047123 -0.049023 0.074073 -0.021706 0.037600 0.023895 0.036201 0.002065 -0.019059 -0.021833 0.026337 -0.009233 0.043472 -0.081630 0.102803 -0.028483 0.004914 -0.038220 0.035923 -0.040137 -0.014643 0.018350 -0.076063 -0.064054 -0.045436 -0.005255 0.013983 0.047331 -0.022542 0.036356 -0.010777 -0.057584 0.092227
*dt_56 0.026406 -0.041886 0.091436 0.017006 -0.042267 0.080985 -0.040014 0.179069 0.073432 0.011812 -0.078201 0.020283 -0.025558 0.018640 -0.071010 -0.004787 -0.068391 -0.010756 -0.049965 -0.078199 0.038774 -0.047424 -0.114722 0.079605 0.009752 0.106263 0.020727 0.041208 0.025713 0.000171 0.023200 0.024981 0.003344 -0.038644 0.121059 -0.089651 0.023011 -0.016699 -0.017309 0.026094 0.004134 -0.029434 0.017546 0.054601 -0.081951 -0.065458 0.049826 -0.030881 0.021318 -0.019330 -0.033641 0.060787 0.075955 -0.006160 0.005546 0.032127 0.000759 -0.016393 0.014317 -0.070925 -0.031441 0.007491 -0.031932 -0.099933 -0.033662 -0.016947 0.025027 -0.045996 -0.053416 0.077887 -0.016755 0.042220 0.018792 0.039049 0.001765 -0.016274 -0.017371 0.026274 -0.006014 0.038241 -0.084013 0.106819 -0.030331 0.005915 -0.033607 0.034371 -0.040758 -0.019757 0.022422 -0.086421 -0.065628 -0.052417 -0.005981 0.009448 0.052158 -0.027607 0.031475 -0.011151 -0.057874 0.099430
*dt_57 0.061499 -0.088085 0.197676 0.029985 -0.097993 0.161113 -0.079397 0.383794 0.162085 0.014663 -0.152255 0.034220 -0.058375 0.040862 -0.145262 -0.010816 -0.144271 -0.013658 -0.099758 -0.158990 0.078324 -0.099758 -0.233658 0.165081 0.031702 0.221808 0.030256 0.085052 0.061569 -0.006099 0.051609 0.045976 0.011441 -0.079084 0.239859 -0.185786 0.060885 -0.028046 -0.027657 0.058548 0.002550 -0.075102 0.030846 0.119429 -0.173884 -0.137862 0.099324 -0.063852 0.041243 -0.047744 -0.072031 0.122682 0.166674 -0.015158 0.012013 0.067070 -0.004706 -0.039964 0.037438 -0.135482 -0.060455 -0.000106 -0.060885 -0.202738 -0.071831 -0.037902 0.057664 -0.108686 -0.110206 0.163096 -0.042132 0.083062 0.047293 0.072816 0.016916 -0.036011 -0.048716 0.057079 -0.006485 0.084889 -0.183522 0.219201 -0.058372 0.015608 -0.076828 0.066099 -0.084061 -0.039417 0.040388 -0.176289 -0.148430 -0.101752 -0.013980 0.030375 0.111608 -0.053759 0.069114 -0.034847 -0.129290 0.205033
*dt_58 0.086078 -0.119582 0.256712 0.045332 -0.128088 0.222421 -0.107633 0.497094 0.203704 0.029746 -0.195479 0.041795 -0.064943 0.054070 -0.189706 -0.014016 -0.193398 -0.026065 -0.132479 -0.217096 0.099764 -0.126504 -0.308962 0.213840 0.037885 0.290594 0.049067 0.109391 0.075767 -0.004030 0.063121 0.051841 0.018134 -0.102266 0.322679 -0.239482 0.070731 -0.041067 -0.038912 0.074042 0.003683 -0.094342 0.046536 0.148585 -0.220682 -0.183506 0.140428 -0.082753 0.058964 -0.056198 -0.095211 0.158633 0.214789 -0.009921 0.021118 0.093664 -0.007656 -0.055176 0.042500 -0.187063 -0.077987 0.012043 -0.075528 -0.263361 -0.089525 -0.044049 0.073675 -0.135304 -0.137940 0.217078 -0.055392 0.107565 0.056360 0.091465 0.010848 -0.054199 -0.060158 0.074690 -0.010892 0.111367 -0.237984 0.293952 -0.072533 0.024165 -0.103788 0.098316 -0.107238 -0.052436 0.053241 -0.228067 -0.184475 -0.133141 -0.020378 0.039233 0.157671 -0.076483 0.097610 -0.036254 -0.168353 0.266930
*dt_59 0.024645 -0.039134 0.076688 0.010664 -0.039451 0.064852 -0.037436 0.150192 0.068005 0.002701 -0.058517 0.018113 -0.022246 0.019438 -0.055549 -0.005392 -0.055051 -0.005396 -0.043424 -0.068923 0.034943 -0.042612 -0.093495 0.067395 0.010989 0.087156 0.017532 0.029120 0.021491 -0.003082 0.019605 0.013408 0.011166 -0.033323 0.103514 -0.075024 0.019941 -0.013391 -0.010141 0.022903 0.000881 -0.030629 0.012617 0.048925 -0.070776 -0.057682 0.037936 -0.019789 0.017707 -0.022371 -0.029009 0.047875 0.061302 -0.000852 0.008936 0.028199 -0.001861 -0.020406 0.018600 -0.056135 -0.020163 -0.001021 -0.027087 -0.077135 -0.032842 -0.009562 0.023745 -0.041566 -0.039557 0.065295 -0.019786 0.034309 0.020332 0.034808 0.008541 -0.012199 -0.016842 0.022061 -0.006759 0.031943 -0.070429 0.086011 -0.026362 0.011906 -0.033030 0.033481 -0.028799 -0.016768 0.019891 -0.067538 -0.055784 -0.045162 -0.004872 0.010841 0.047968 -0.024207 0.034210 -0.010982 -0.047918 0.081194
*dt_60 0.044774 -0.071678 0.149991 0.024366 -0.081060 0.132592 -0.065775 0.298961 0.126413 0.018294 -0.115955 0.030072 -0.040901 0.027303 -0.109239 -0.011885 -0.118521 -0.017147 -0.075392 -0.129523 0.053625 -0.072897 -0.179837 0.128811 0.025743 0.164109 0.027050 0.059031 0.043808 -0.006655 0.036136 0.033096 0.014641 -0.056447 0.194304 -0.137556 0.040595 -0.020582 -0.020289 0.042139 0.000296 -0.060292 0.024966 0.090841 -0.129962 -0.104947 0.078112 -0.044897 0.034752 -0.029262 -0.055372 0.091357 0.127870 -0.007264 0.007485 0.050609 -0.001508 -0.032099 0.026689 -0.104136 -0.051826 0.004980 -0.042523 -0.156326 -0.050731 -0.025622 0.040617 -0.085415 -0.078577 0.124063 -0.032581 0.065858 0.031393 0.052188 0.005337 -0.031363 -0.033140 0.046825 -0.008697 0.068450 -0.141900 0.177838 -0.047491 0.020462 -0.061503 0.057501 -0.064429 -0.032266 0.037118 -0.137070 -0.114684 -0.078138 -0.015243 0.023393 0.091581 -0.047246 0.053945 -0.027478 -0.101203 0.162523
*dt_61 0.128179 -0.176935 0.384354 0.062337 -0.196826 0.326731 -0.164418 0.757168 0.308703 0.040232 -0.302050 0.071155 -0.106029 0.082397 -0.289291 -0.018065 -0.293743 -0.030019 -0.198545 -0.321139 0.152831 -0.187251 -0.471220 0.326457 0.057017 0.429932 0.064776 0.154822 0.117119 -0.006365 0.096844 0.082585 0.035977 -0.149705 0.483999 -0.360646 0.112369 -0.058192 -0.053494 0.122811 0.003486 -0.144592 0.069105 0.224222 -0.333639 -0.271618 0.208873 -0.120733 0.083058 -0.088987 -0.142489 0.247077 0.318815 -0.014957 0.026818 0.134187 -0.001899 -0.081350 0.072305 -0.277791 -0.125859 0.014907 -0.118386 -0.388072 -0.140164 -0.065269 0.113709 -0.206138 -0.213255 0.336050 -0.084234 0.162641 0.088785 0.147241 0.022146 -0.081419 -0.086392 0.121117 -0.016773 0.177355 -0.353114 0.444455 -0.111887 0.036024 -0.149913 0.142475 -0.160372 -0.087772 0.081106 -0.342210 -0.289929 -0.200931 -0.023203 0.050002 0.236185 -0.109357 0.140190 -0.058793 -0.247586 0.417031
*dt_62 0.053855 -0.068515 0.153335 0.030151 -0.083001 0.135490 -0.068226 0.304474 0.130243 0.017602 -0.126401 0.024207 -0.045593 0.028833 -0.120143 -0.004946 -0.122034 -0.015100 -0.076240 -0.132653 0.056066 -0.073861 -0.192733 0.129071 0.027861 0.174823 0.022999 0.066484 0.048073 -0.003733 0.038371 0.034306 0.017272 -0.065457 0.197705 -0.140704 0.048851 -0.027619 -0.020029 0.046618 0.003034 -0.054028 0.023226 0.089177 -0.131832 -0.113647 0.082708 -0.053546 0.033814 -0.039678 -0.054932 0.097026 0.129864 -0.003417 0.009707 0.057523 -0.008102 -0.037174 0.026419 -0.109148 -0.054131 0.001962 -0.045213 -0.154622 -0.060660 -0.030143 0.049274 -0.081749 -0.085088 0.134521 -0.032035 0.059621 0.036122 0.058316 0.012312 -0.032327 -0.038262 0.046822 -0.011685 0.071069 -0.139855 0.178413 -0.046583 0.021211 -0.060736 0.061490 -0.065374 -0.032050 0.029830 -0.139298 -0.114196 -0.078698 -0.008937 0.016190 0.097923 -0.046366 0.056955 -0.021837 -0.098200 0.163599
*dt_63 0.122475 -0.168061 0.361947 0.065329 -0.184894 0.307165 -0.160153 0.720618 0.292013 0.031399 -0.287067 0.061392 -0.103898 0.070100 -0.278775 -0.019991 -0.277426 -0.025405 -0.190455 -0.308307 0.142186 -0.186831 -0.447047 0.309277 0.052448 0.403844 0.064827 0.145480 0.105520 -0.002851 0.094612 0.082806 0.033251 -0.139744 0.466839 -0.338551 0.112807 -0.062300 -0.046904 0.115906 0.001202 -0.139185 0.066959 0.218956 -0.316106 -0.263806 0.191655 -0.112477 0.079456 -0.079092 -0.135168 0.231597 0.308151 -0.022900 0.025019 0.134491 -0.009837 -0.082585 0.070250 -0.265453 -0.116298 0.005136 -0.113183 -0.366600 -0.137307 -0.062177 0.104749 -0.194623 -0.207058 0.315746 -0.074792 0.146051 0.083435 0.132351 0.020586 -0.074903 -0.087533 0.116337 -0.022265 0.165746 -0.340761 0.414886 -0.101391 0.031611 -0.142975 0.131116 -0.151244 -0.075511 0.073148 -0.330111 -0.276045 -0.192709 -0.025259 0.047036 0.226303 -0.099180 0.132662 -0.054556 -0.241399 0.387907
*dt_64 0.054626 -0.077883 0.158796 0.022703 -0.081701 0.137367 -0.067386 0.320824 0.137284 0.013408 -0.130757 0.024361 -0.047905 0.033434 -0.121935 -0.008137 -0.121926 -0.018403 -0.085211 -0.137246 0.062369 -0.078143 -0.203621 0.141810 0.021594 0.188462 0.029384 0.069350 0.054557 -0.004074 0.046334 0.033478 0.017612 -0.060029 0.211373 -0.157149 0.050360 -0.024564 -0.026069 0.047391 0.006337 -0.064805 0.031187 0.102121 -0.138700 -0.112414 0.085438 -0.051349 0.035400 -0.032363 -0.054922 0.099652 0.133038 -0.013248 0.010900 0.062225 -0.008156 -0.031490 0.029819 -0.122179 -0.055450 0.005943 -0.055575 -0.170796 -0.065081 -0.024489 0.047044 -0.090193 -0.086299 0.138071 -0.029289 0.070915 0.041082 0.062569 0.012623 -0.031348 -0.042242 0.052234 -0.009631 0.071359 -0.151340 0.187604 -0.047733 0.019076 -0.059320 0.057119 -0.069796 -0.035566 0.031316 -0.145431 -0.125270 -0.082005 -0.008846 0.017521 0.101585 -0.048668 0.058817 -0.027057 -0.102783 0.174415
*dt_65 0.052419 -0.081945 0.169182 0.028290 -0.086992 0.146551 -0.079133 0.341169 0.134921 0.015918 -0.136583 0.035917 -0.045767 0.039414 -0.129404 -0.011858 -0.133408 -0.010656 -0.087080 -0.138715 0.062483 -0.082760 -0.207310 0.147238 0.030643 0.195682 0.035272 0.070512 0.049205 -0.000181 0.039837 0.043521 0.014214 -0.061371 0.222571 -0.163791 0.053749 -0.031497 -0.018876 0.051057 -0.001067 -0.065368 0.029904 0.096955 -0.151858 -0.122488 0.088114 -0.052565 0.036073 -0.034384 -0.063236 0.103861 0.141997 -0.007630 0.014511 0.062329 0.002259 -0.034584 0.032910 -0.121607 -0.056797 0.008492 -0.056601 -0.180531 -0.058789 -0.028333 0.048564 -0.089085 -0.094810 0.145871 -0.038344 0.074015 0.037706 0.068566 0.012044 -0.037440 -0.043324 0.048204 -0.007948 0.081868 -0.160323 0.199436 -0.051242 0.020863 -0.072381 0.066086 -0.070228 -0.037720 0.039922 -0.158270 -0.131543 -0.087394 -0.010042 0.020747 0.104207 -0.044861 0.063062 -0.025266 -0.107339 0.189706
*dt_66 0.023821 -0.026655 0.064338 0.011002 -0.036504 0.051605 -0.027840 0.127710 0.050262 0.005394 -0.053030 0.017334 -0.021450 0.015145 -0.048726 -0.005592 -0.045890 -0.008646 -0.038760 -0.057745 0.024097 -0.033687 -0.079833 0.058735 0.005090 0.073616 0.007506 0.028577 0.022530 -0.005773 0.013391 0.018587 0.005248 -0.025075 0.081006 -0.058155 0.015600 -0.013725 -0.012616 0.017902 -0.003109 -0.026428 0.014094 0.037896 -0.061496 -0.051183 0.037157 -0.023255 0.018125 -0.008637 -0.019974 0.046023 0.057723 -0.001690 0.004265 0.022569 0.003943 -0.009318 0.009070 -0.046960 -0.025555 0.004957 -0.017664 -0.068878 -0.019787 -0.014249 0.019573 -0.035098 -0.041209 0.055299 -0.014532 0.030789 0.019180 0.027307 0.000017 -0.014279 -0.014717 0.020380 -0.007899 0.032015 -0.065118 0.077492 -0.020493 0.002155 -0.021313 0.020648 -0.024192 -0.017951 0.015113 -0.063126 -0.053429 -0.032569 -0.008132 0.011920 0.042454 -0.016517 0.022117 -0.008102 -0.041606 0.072200
*dt_67 0.032154 -0.045792 0.100988 0.021215 -0.057338 0.091072 -0.046269 0.202967 0.083199 0.010531 -0.081579 0.020236 -0.022684 0.020131 -0.081940 -0.000833 -0.077584 -0.005942 -0.048724 -0.090059 0.039517 -0.055173 -0.122433 0.090927 0.018773 0.114681 0.020879 0.046431 0.029443 -0.002706 0.025618 0.024338 0.012475 -0.038710 0.124965 -0.094420 0.032353 -0.020697 -0.016482 0.027046 0.005900 -0.037293 0.019535 0.063733 -0.092684 -0.073610 0.051455 -0.032311 0.023814 -0.016404 -0.035878 0.059733 0.089870 -0.009108 0.002078 0.036461 -0.001802 -0.019038 0.016362 -0.075123 -0.036741 0.008249 -0.037723 -0.109438 -0.042200 -0.022611 0.032484 -0.057636 -0.055450 0.085685 -0.023862 0.041524 0.026734 0.037607 0.010263 -0.024756 -0.023479 0.035794 -0.004301 0.048457 -0.099205 0.121370 -0.027955 0.012667 -0.038602 0.035400 -0.043984 -0.026023 0.024735 -0.088200 -0.079511 -0.054033 -0.010949 0.010521 0.065619 -0.024353 0.041875 -0.013332 -0.070933 0.115767
*dt_68 0.035587 -0.048960 0.112356 0.015636 -0.053821 0.089661 -0.048118 0.216902 0.091867 0.004876 -0.086309 0.019784 -0.033107 0.024262 -0.079127 -0.001534 -0.083988 -0.008947 -0.062356 -0.094289 0.047051 -0.055852 -0.137861 0.097244 0.015402 0.121719 0.018810 0.043012 0.033712 -0.000280 0.031774 0.022933 0.012034 -0.047122 0.136983 -0.105694 0.035090 -0.022153 -0.019577 0.033058 0.000830 -0.035163 0.021427 0.067508 -0.095098 -0.074170 0.053558 -0.038469 0.018537 -0.025937 -0.041797 0.070446 0.090229 -0.003396 0.012547 0.037329 -0.000841 -0.025961 0.019491 -0.073268 -0.035749 0.003838 -0.036613 -0.113741 -0.036669 -0.016838 0.037251 -0.056442 -0.061028 0.098930 -0.024347 0.047646 0.026039 0.046394 0.010589 -0.022976 -0.028568 0.036759 -0.005994 0.051544 -0.102855 0.129766 -0.027277 0.006001 -0.039979 0.036929 -0.048702 -0.019867 0.021558 -0.101487 -0.086399 -0.060477 -0.003891 0.011639 0.068918 -0.035023 0.036036 -0.018761 -0.073777 0.114435
*dt_69 0.013490 -0.018779 0.031579 0.003047 -0.015772 0.032296 -0.013385 0.073047 0.026083 0.006989 -0.023926 0.007939 -0.008606 0.006007 -0.021817 0.001735 -0.029712 -0.006134 -0.017402 -0.024608 0.015064 -0.019400 -0.043626 0.030758 0.005614 0.040730 0.001010 0.012123 0.006220 -0.003993 0.007221 0.008151 0.002354 -0.015953 0.041799 -0.036673 0.011634 -0.004371 -0.002642 0.014868 -0.001783 -0.011170 0.003890 0.022254 -0.026382 -0.023322 0.018923 -0.006757 0.009766 -0.006768 -0.016598 0.023496 0.033901 -0.004516 -0.001678 0.016017 0.003032 -0.009788 0.008189 -0.023634 -0.012408 -0.000750 -0.009610 -0.031884 -0.013153 -0.001370 0.015157 -0.021319 -0.015658 0.026945 -0.006925 0.010502 0.012773 0.009864 0.004692 -0.003722 -0.008120 0.011001 -0.001753 0.013142 -0.032264 0.042316 -0.007703 -0.001309 -0.011733 0.013126 -0.019582 -0.007880 0.004987 -0.027582 -0.026870 -0.018747 -0.003244 0.007987 0.025312 -0.009972 0.010615 -0.009225 -0.022909 0.037930
*dt_70 0.057086 -0.080293 0.171860 0.030594 -0.087847 0.145350 -0.070241 0.333039 0.140371 0.016069 -0.133180 0.030005 -0.041182 0.028463 -0.130978 -0.006343 -0.130131 -0.015711 -0.093083 -0.143688 0.068313 -0.086509 -0.209801 0.145424 0.026724 0.189667 0.032564 0.065811 0.051231 0.002431 0.040253 0.034847 0.017329 -0.060656 0.218573 -0.157782 0.051170 -0.024089 -0.021719 0.052717 -0.004873 -0.059702 0.029212 0.095338 -0.148889 -0.124093 0.089547 -0.046896 0.040952 -0.042963 -0.062108 0.101393 0.140231 -0.008586 0.015917 0.060478 -0.004454 -0.033168 0.032617 -0.119453 -0.050729 0.006420 -0.051245 -0.173480 -0.058468 -0.026352 0.052341 -0.087146 -0.093003 0.149263 -0.035171 0.064454 0.038061 0.062465 0.005954 -0.034110 -0.033067 0.052676 -0.004197 0.076903 -0.156135 0.201037 -0.047153 0.017473 -0.061255 0.061171 -0.065988 -0.041086 0.034936 -0.150159 -0.132045 -0.083391 -0.016381 0.023753 0.094484 -0.049406 0.067624 -0.020595 -0.106397 0.183098
*dt_71 0.050152 -0.080963 0.163653 0.022254 -0.085915 0.140461 -0.065305 0.318471 0.136765 0.016571 -0.130798 0.026414 -0.047551 0.030071 -0.127805 -0.004306 -0.122782 -0.011803 -0.083308 -0.141239 0.065716 -0.075128 -0.196874 0.136578 0.025496 0.182153 0.024717 0.068984 0.048587 -0.003323 0.041195 0.035247 0.016546 -0.062419 0.210651 -0.156732 0.045238 -0.024040 -0.025012 0.045337 -0.000109 -0.062884 0.033156 0.095599 -0.140935 -0.112530 0.087148 -0.049049 0.028739 -0.040280 -0.064198 0.098819 0.141811 -0.003622 0.014914 0.059366 -0.007414 -0.039149 0.026497 -0.121407 -0.050251 0.008742 -0.053446 -0.163649 -0.061674 -0.032419 0.047207 -0.085400 -0.090573 0.133944 -0.039862 0.065562 0.036732 0.063857 0.003955 -0.028822 -0.035819 0.048386 -0.007070 0.072517 -0.150022 0.190305 -0.048610 0.020634 -0.063295 0.058824 -0.068061 -0.036349 0.035359 -0.151902 -0.126009 -0.087225 -0.008185 0.021704 0.096834 -0.044978 0.060055 -0.028182 -0.106435 0.174163
*dt_72 0.022709 -0.024730 0.054454 0.009459 -0.024566 0.045148 -0.029742 0.109479 0.051222 0.004943 -0.048809 0.006842 -0.017171 0.012031 -0.039746 0.001409 -0.038697 -0.002149 -0.033698 -0.049468 0.020939 -0.028452 -0.065204 0.046191 0.008592 0.063495 0.011979 0.026924 0.018705 -0.004700 0.015659 0.012762 0.003140 -0.025751 0.074296 -0.057109 0.020735 -0.010440 -0.003121 0.021176 0.000753 -0.024806 0.008103 0.036584 -0.052995 -0.038156 0.030487 -0.018453 0.007121 -0.008014 -0.017702 0.037529 0.045808 -0.003377 0.004774 0.021101 -0.001869 -0.007159 0.006105 -0.043522 -0.020018 0.005806 -0.021251 -0.061137 -0.016810 -0.009241 0.016512 -0.032196 -0.027470 0.050196 -0.012259 0.022846 0.016416 0.022124 0.007173 -0.008093 -0.015273 0.017912 -0.008376 0.025373 -0.052071 0.070577 -0.015194 0.009067 -0.018079 0.019352 -0.025394 -0.013311 0.010682 -0.050057 -0.048135 -0.031571 0.000754 0.006851 0.038070 -0.017247 0.024442 -0.009159 -0.041124 0.063431
*dt_73 0.010550 -0.008608 0.022551 -0.000438 -0.010461 0.017693 -0.010890 0.034805 0.018316 0.000712 -0.011417 0.006102 -0.006220 0.003645 -0.013486 0.003972 -0.017551 -0.005510 -0.010502 -0.018639 0.003650 -0.007297 -0.027033 0.019735 0.005841 0.022954 0.000003 0.003104 0.008137 -0.004310 0.006817 0.007009 0.002515 -0.003496 0.025442 -0.016752 0.008277 -0.007443 -0.002096 0.004956 0.004110 -0.011515 0.007036 0.012930 -0.016316 -0.016495 0.011030 -0.001920 0.001597 0.000200 -0.003969 0.015458 0.014159 -0.003909 0.004158 0.004884 0.004572 -0.008204 0.004086 -0.013555 -0.007250 -0.002116 -0.007537 -0.020147 -0.003806 -0.001776 0.001121 -0.011539 -0.009894 0.012952 -0.003354 0.010789 -0.000777 0.009172 -0.002911 0.000491 -0.007516 0.007796 0.000620 0.004099 -0.013836 0.024959 -0.001779 -0.000574 -0.010196 0.006184 -0.009168 -0.004106 0.003331 -0.015819 -0.017923 -0.013662 -0.000553 0.003441 0.015743 -0.001936 0.005775 -0.003940 -0.012818 0.017125
*dt_74 0.007397 -0.008987 0.017241 0.005724 -0.003959 0.013050 -0.006329 0.037486 0.009489 -0.001160 -0.011477 -0.001504 -0.002013 0.001361 -0.012099 -0.001518 -0.009418 -0.000646 -0.005362 -0.019389 0.005123 -0.004020 -0.021582 0.012391 -0.000081 0.014788 0.000142 0.010374 0.000446 0.002912 0.006827 0.000735 0.001107 -0.010259 0.020639 -0.012856 0.007460 -0.000513 0.000776 0.001496 0.003198 -0.001950 0.006835 0.007111 -0.019050 -0.016280 0.009250 -0.005824 0.006638 -0.000819 -0.002022 0.007307 0.015737 -0.005871 0.005636 0.006505 0.002841 -0.005638 0.005776 -0.007461 -0.004027 0.001055 -0.005107 -0.015546 -0.008304 -0.000983 0.003169 -0.004687 -0.007260 0.017488 0.000370 0.010321 0.005466 0.007610 0.001936 -0.006777 -0.004875 0.001005 -0.004706 0.009287 -0.015055 0.019786 -0.000627 0.002550 -0.010460 0.002972 -0.002444 -0.007324 0.007334 -0.013357 -0.013829 -0.008312 -0.001257 0.004879 0.015124 -0.003812 0.011041 0.001616 -0.015990 0.016434
*dt_75 0.005487 -0.007961 0.019151 0.004959 -0.013166 0.020055 -0.011615 0.046553 0.015214 0.001287 -0.014469 0.002844 -0.001990 0.000725 -0.017167 0.000801 -0.018004 -0.002307 -0.012689 -0.022000 0.005377 -0.008646 -0.028552 0.014296 -0.001450 0.028374 0.003540 0.007572 0.010335 0.004271 0.003140 0.009622 -0.002227 -0.006395 0.028339 -0.016639 0.003262 -0.001096 -0.005472 0.007709 -0.004746 -0.013189 0.004678 0.009862 -0.016791 -0.019837 0.014906 -0.005631 0.007894 -0.008237 -0.008474 0.018470 0.017069 -0.000269 -0.000019 0.010175 -0.004194 -0.001813 0.003691 -0.013737 -0.011354 0.001193 -0.011930 -0.027763 -0.006236 -0.004207 0.005511 -0.011455 -0.008969 0.021940 -0.007781 0.010718 0.005830 0.011563 -0.002835 -0.001269 -0.006448 0.002422 0.003366 0.013397 -0.023445 0.023626 -0.006041 0.001370 -0.013488 0.004235 -0.013214 -0.008985 0.007515 -0.019686 -0.018283 -0.012787 -0.005572 -0.001684 0.011428 -0.005354 0.007493 0.000081 -0.016252 0.020370
*dt_76 0.003130 -0.013156 0.023351 0.001818 -0.012549 0.019320 -0.010273 0.045827 0.021411 0.005806 -0.017678 0.005318 -0.005872 0.009008 -0.015414 -0.002262 -0.019580 -0.005414 -0.013268 -0.020635 0.005670 -0.013726 -0.022651 0.019994 0.002551 0.025852 0.001865 0.010359 0.006767 -0.002034 0.008863 -0.000056 0.006998 -0.013578 0.029240 -0.016104 0.002020 -0.008195 -0.004110 0.008894 -0.000270 -0.009195 0.000847 0.009954 -0.020928 -0.019995 0.010070 -0.005759 0.004785 -0.005042 -0.012567 0.015117 0.022143 -0.004129 -0.001938 0.005132 0.002137 -0.003848 0.008233 -0.017905 -0.004121 0.002447 -0.007541 -0.026064 -0.012928 -0.008285 0.007060 -0.007581 -0.014796 0.015102 -0.005705 0.004441 0.006464 0.011400 -0.000741 -0.006837 -0.008287 0.003654 0.002820 0.006220 -0.025133 0.022284 -0.010614 0.004536 -0.004969 0.008169 -0.005193 -0.008606 0.003294 -0.020899 -0.019762 -0.010917 0.001599 0.004876 0.014006 -0.003362 0.009875 -0.005651 -0.017876 0.025970
*dt_77 0.039649 -0.049576 0.118532 0.024008 -0.059435 0.103197 -0.053865 0.223066 0.095400 0.013646 -0.092316 0.018434 -0.029248 0.024773 -0.087143 -0.002588 -0.082117 -0.013014 -0.060892 -0.098394 0.042729 -0.058196 -0.136529 0.096481 0.018288 0.128332 0.020920 0.044346 0.034904 0.000649 0.025060 0.026144 0.014406 -0.047848 0.142344 -0.104120 0.035061 -0.022277 -0.010453 0.038817 0.000849 -0.045269 0.018134 0.067366 -0.099693 -0.078988 0.060839 -0.037301 0.022896 -0.028253 -0.042537 0.070006 0.102093 -0.010287 0.004617 0.041876 -0.006336 -0.027259 0.019358 -0.086211 -0.037899 0.007994 -0.034257 -0.116104 -0.047716 -0.023270 0.034310 -0.065636 -0.063632 0.101309 -0.022017 0.050848 0.032234 0.039850 0.007639 -0.021005 -0.030541 0.031051 -0.011436 0.052688 -0.105231 0.136406 -0.032168 0.011098 -0.040456 0.036338 -0.052648 -0.020218 0.028120 -0.105729 -0.083308 -0.064308 -0.012160 0.014683 0.075215 -0.030793 0.039022 -0.018764 -0.080219 0.121004
*dt_78 0.020064 -0.031502 0.071113 0.015058 -0.031158 0.060827 -0.028777 0.129257 0.055598 0.010163 -0.048461 0.014016 -0.014659 0.009904 -0.052006 -0.001828 -0.052756 -0.006299 -0.030556 -0.051807 0.026110 -0.037837 -0.084761 0.052808 0.012593 0.073869 0.008252 0.031433 0.024008 -0.004134 0.016347 0.010550 0.007224 -0.023482 0.082289 -0.058749 0.020553 -0.014878 -0.006289 0.016431 0.002270 -0.025165 0.013320 0.035009 -0.056506 -0.052690 0.036987 -0.016456 0.015032 -0.015623 -0.029176 0.045305 0.060182 0.000776 0.000932 0.026148 -0.005922 -0.011395 0.012152 -0.045974 -0.019793 0.004156 -0.020935 -0.068326 -0.028442 -0.014400 0.018697 -0.032260 -0.032823 0.052049 -0.016925 0.022858 0.012355 0.026835 0.005276 -0.017718 -0.018923 0.023578 0.000638 0.032683 -0.065768 0.077520 -0.021799 0.002258 -0.025363 0.025724 -0.026733 -0.014123 0.014258 -0.057674 -0.052734 -0.039891 -0.005262 0.014158 0.041937 -0.019080 0.020216 -0.010892 -0.043567 0.073330
*dt_79 0.003675 -0.007419 0.028887 0.006308 -0.009377 0.025548 -0.012113 0.050545 0.016795 0.003310 -0.021676 0.008480 -0.010587 0.005763 -0.014933 -0.004107 -0.018259 0.001974 -0.015251 -0.017655 0.013456 -0.012172 -0.028889 0.019201 0.002881 0.030050 0.005450 0.010681 0.008707 -0.004407 0.002659 0.008360 0.004325 -0.013667 0.026068 -0.022392 0.011524 -0.004427 -0.003734 0.011476 0.002078 -0.013044 -0.000733 0.009913 -0.022924 -0.016802 0.008252 -0.002904 0.010107 -0.002223 -0.007157 0.011873 0.020909 -0.004228 -0.001293 0.005734 -0.005235 -0.001028 0.003711 -0.013700 -0.005515 -0.003405 -0.004363 -0.021786 -0.012131 -0.002925 0.008636 -0.014621 -0.010898 0.017390 -0.000399 0.014740 0.007360 0.011573 0.001618 0.000177 -0.003525 0.006008 -0.005154 0.008557 -0.023779 0.030571 -0.002986 0.000392 -0.008315 0.012080 -0.009897 -0.000970 0.002505 -0.019974 -0.017142 -0.016472 -0.002171 0.007066 0.014912 -0.008319 0.004484 -0.005306 -0.020758 0.023082
*dt_80 0.034904 -0.046397 0.104770 0.015603 -0.050571 0.088967 -0.042459 0.198899 0.085706 0.004419 -0.082112 0.015826 -0.030812 0.025242 -0.072122 -0.003503 -0.076664 -0.006610 -0.056425 -0.085338 0.038025 -0.050060 -0.123581 0.088355 0.011081 0.114081 0.015259 0.037207 0.029207 0.002258 0.020861 0.025775 0.012636 -0.036832 0.129016 -0.090625 0.031058 -0.021968 -0.014209 0.029411 -0.002806 -0.035552 0.021187 0.056802 -0.086846 -0.067030 0.048654 -0.030237 0.017515 -0.024928 -0.034403 0.061981 0.082494 -0.005537 0.003108 0.036733 -0.001424 -0.019755 0.019251 -0.069362 -0.028404 0.000866 -0.032234 -0.102016 -0.039326 -0.011671 0.034378 -0.058135 -0.059352 0.088628 -0.026452 0.042152 0.022452 0.036753 0.002178 -0.020839 -0.023993 0.028027 -0.006760 0.048766 -0.091459 0.111779 -0.025665 0.007970 -0.043624 0.033678 -0.037654 -0.016844 0.021952 -0.086653 -0.070986 -0.057557 -0.008746 0.008509 0.062632 -0.024055 0.036330 -0.016045 -0.060381 0.102735
*dt_81 0.018340 -0.022215 0.042032 0.008422 -0.025451 0.036741 -0.023020 0.082619 0.036044 0.005798 -0.036389 0.005733 -0.012701 0.010513 -0.036563 0.003069 -0.034539 0.000468 -0.016922 -0.030331 0.014637 -0.018327 -0.051749 0.032642 0.002319 0.052111 0.008125 0.013038 0.012794 0.000734 0.010271 0.007670 0.007504 -0.012817 0.049961 -0.037650 0.010220 -0.004932 -0.005428 0.015298 -0.000907 -0.016427 0.004972 0.023879 -0.038588 -0.031472 0.026942 -0.012637 0.008198 -0.011097 -0.012830 0.027353 0.035481 -0.007065 0.005443 0.010979 -0.002190 -0.013369 0.012530 -0.030248 -0.009397 0.000330 -0.009522 -0.042603 -0.017413 -0.004559 0.016949 -0.023223 -0.025134 0.036753 -0.012141 0.013622 0.011672 0.013326 -0.000179 -0.010272 -0.012764 0.013242 -0.002667 0.022368 -0.043290 0.046085 -0.011304 0.008149 -0.021443 0.014893 -0.012703 -0.004993 0.009760 -0.034733 -0.030605 -0.026556 -0.002626 0.000921 0.030643 -0.009919 0.013285 -0.006500 -0.024358 0.045004
*dt_82 0.007769 -0.012981 0.012511 0.004020 -0.011848 0.011447 -0.011823 0.034727 0.010628 -0.001617 -0.010392 0.000890 -0.005060 -0.000129 -0.012049 0.000155 -0.015678 0.000475 -0.013766 -0.012432 0.007128 -0.012482 -0.020674 0.017260 0.000688 0.024486 0.004163 0.008076 0.002706 0.002106 0.001137 0.007471 0.004881 -0.003366 0.023731 -0.014655 0.001800 -0.001949 -0.005959 0.004563 0.003173 -0.004275 0.001787 0.005574 -0.012800 -0.016265 0.013789 -0.006764 0.002180 -0.008094 -0.002758 0.006771 0.017901 -0.003879 0.002635 0.006742 -0.000725 -0.000092 0.006018 -0.013547 -0.008319 0.001136 -0.009067 -0.016426 -0.005145 -0.004360 0.008339 -0.004837 -0.009831 0.015721 -0.000030 0.009558 0.001233 0.006052 -0.001931 0.000237 0.000807 0.008864 -0.005170 0.007192 -0.011539 0.024516 -0.005371 0.001908 -0.004833 0.006777 -0.009358 -0.002750 0.007966 -0.011207 -0.009573 -0.007582 -0.006240 0.001836 0.014459 -0.008012 0.008465 -0.007525 -0.007682 0.022634
*dt_83 0.055857 -0.076567 0.155939 0.025716 -0.079145 0.137898 -0.072349 0.307650 0.129868 0.016987 -0.119286 0.025470 -0.041638 0.027731 -0.114708 -0.005001 -0.115397 -0.014402 -0.076581 -0.127205 0.065681 -0.078585 -0.188825 0.136146 0.029086 0.170749 0.023942 0.063612 0.049255 -0.000554 0.036340 0.034972 0.012870 -0.055685 0.198739 -0.142014 0.043080 -0.022343 -0.015922 0.048350 0.004433 -0.059704 0.026692 0.094028 -0.139939 -0.107471 0.087670 -0.054044 0.036164 -0.032282 -0.052122 0.101224 0.134356 -0.004779 0.014377 0.053225 -0.006401 -0.028354 0.026735 -0.113684 -0.054268 0.007428 -0.053726 -0.164606 -0.062888 -0.028976 0.043535 -0.082999 -0.081547 0.131866 -0.036725 0.065663 0.032268 0.058134 0.005910 -0.027576 -0.035584 0.052824 -0.006066 0.070096 -0.149712 0.181069 -0.049206 0.017456 -0.061529 0.055088 -0.061522 -0.033739 0.030412 -0.145603 -0.114118 -0.079280 -0.007575 0.025985 0.091745 -0.045193 0.061723 -0.022352 -0.103939 0.170212
*dt_84 0.027010 -0.042131 0.092438 0.010583 -0.042893 0.076618 -0.037922 0.176834 0.073850 0.007289 -0.064970 0.012040 -0.022737 0.017062 -0.062786 -0.004449 -0.067892 -0.007037 -0.046104 -0.069784 0.033713 -0.047696 -0.109922 0.069491 0.011929 0.096302 0.013924 0.037135 0.031254 -0.002598 0.025108 0.016620 0.008729 -0.030212 0.108939 -0.078585 0.027531 -0.010653 -0.015370 0.022929 -0.002725 -0.033211 0.015533 0.051810 -0.076575 -0.059307 0.043090 -0.027097 0.022326 -0.019256 -0.031265 0.049981 0.076122 -0.003911 0.007016 0.032590 -0.004900 -0.013890 0.014175 -0.058703 -0.024049 -0.000138 -0.029874 -0.092604 -0.027628 -0.012012 0.022640 -0.051642 -0.047751 0.075587 -0.020866 0.032538 0.018577 0.036751 0.007748 -0.019173 -0.014694 0.028862 -0.001701 0.038317 -0.083223 0.097511 -0.021168 0.014434 -0.032944 0.029248 -0.030623 -0.020739 0.016818 -0.078017 -0.063276 -0.044946 -0.008731 0.011804 0.048743 -0.027315 0.034262 -0.018958 -0.056589 0.090783
*dt_85 0.016769 -0.031317 0.068865 0.012870 -0.030975 0.055858 -0.032011 0.130132 0.048410 0.007950 -0.052455 0.011959 -0.021853 0.009943 -0.043551 -0.007294 -0.048395 -0.007815 -0.033759 -0.053273 0.029852 -0.026998 -0.077909 0.049477 0.011142 0.072723 0.007335 0.030689 0.023553 -0.002607 0.017040 0.018312 0.010200 -0.022870 0.078135 -0.059231 0.018071 -0.014108 -0.003661 0.018628 0.003422 -0.024613 0.009634 0.040384 -0.053675 -0.050576 0.030584 -0.016427 0.012830 -0.015135 -0.024811 0.042380 0.049746 -0.002409 0.008805 0.021339 0.001961 -0.015737 0.009634 -0.045295 -0.019525 -0.000148 -0.020063 -0.064904 -0.022383 -0.009439 0.016257 -0.036582 -0.040207 0.058454 -0.018231 0.028401 0.011261 0.024498 0.004090 -0.012294 -0.018533 0.024642 -0.008001 0.032834 -0.055488 0.072019 -0.015938 0.010918 -0.020605 0.022446 -0.025510 -0.017441 0.017271 -0.053591 -0.053185 -0.031953 -0.000489 0.008248 0.034152 -0.014223 0.028485 -0.010248 -0.044232 0.068162
*dt_86 0.050279 -0.076713 0.157574 0.021558 -0.079444 0.135093 -0.070523 0.311541 0.134304 0.015974 -0.125884 0.028845 -0.045648 0.031841 -0.122244 -0.005303 -0.118825 -0.015208 -0.083101 -0.136886 0.056516 -0.075570 -0.198205 0.131249 0.029216 0.177293 0.028301 0.067016 0.049022 -0.005717 0.036819 0.034604 0.012474 -0.062727 0.200835 -0.143714 0.043614 -0.027004 -0.020105 0.049975 0.001523 -0.053476 0.029529 0.090939 -0.143756 -0.109249 0.088684 -0.047265 0.033856 -0.034440 -0.052320 0.103267 0.133178 -0.012075 0.013445 0.058176 -0.006279 -0.031356 0.032822 -0.111111 -0.049028 0.009627 -0.054014 -0.159458 -0.060145 -0.027269 0.047384 -0.083562 -0.091980 0.137786 -0.034874 0.066493 0.035372 0.061040 0.008560 -0.033804 -0.033602 0.048666 -0.013055 0.074647 -0.147101 0.189545 -0.050066 0.022210 -0.064084 0.058717 -0.061967 -0.031990 0.029635 -0.139131 -0.123864 -0.089659 -0.007737 0.020186 0.094065 -0.043185 0.061464 -0.027432 -0.107381 0.174972
*dt_87 0.006715 -0.014900 0.020807 0.003055 -0.013694 0.021509 -0.013778 0.046939 0.016738 0.001606 -0.013773 0.002335 -0.003753 0.006071 -0.017799 -0.003230 -0.018322 -0.001751 -0.011826 -0.014859 0.008846 -0.009875 -0.023323 0.022462 -0.000554 0.023630 0.008606 0.009949 0.007531 -0.001813 0.007316 0.004351 0.005784 -0.007882 0.031954 -0.017243 0.004983 0.000299 -0.003571 0.008157 0.003473 -0.011021 -0.000001 0.013358 -0.014293 -0.013106 0.012579 -0.010685 0.001892 -0.007431 -0.006148 0.012535 0.022815 0.000610 -0.001236 0.010828 -0.004183 -0.006751 0.006697 -0.012883 -0.003193 0.001224 -0.005803 -0.018384 -0.011478 -0.006150 0.003213 -0.008931 -0.012781 0.014603 -0.009624 0.004410 0.000446 0.006375 0.005395 -0.008120 -0.002005 0.010885 -0.000279 0.011068 -0.018028 0.021447 -0.003980 -0.002180 -0.007525 0.011560 -0.011787 -0.003774 0.007735 -0.020485 -0.015500 -0.008486 -0.003931 0.007649 0.013935 -0.003001 0.010076 -0.005428 -0.014514 0.027816
*dt_88 -0.002192 -0.003939 0.005119 0.005598 -0.001264 0.007677 -0.001513 0.016255 0.008590 0.000644 -0.005074 0.006103 -0.003071 0.000412 -0.007648 -0.004544 -0.010241 -0.002617 -0.004826 -0.005140 0.002649 -0.003817 -0.004450 0.010065 0.000220 0.004119 0.003267 0.001974 0.002185 -0.004310 -0.000962 -0.000127 -0.001063 -0.007062 0.012497 -0.005631 0.005582 0.003019 -0.004030 -0.001324 0.004127 -0.005185 0.001293 0.007507 -0.002953 -0.005841 -0.000453 0.000381 0.005701 -0.001685 -0.006990 0.001032 0.004464 0.002946 0.002392 0.006683 -0.005180 -0.004364 -0.002259 -0.009387 -0.004918 -0.002313 0.000779 -0.005955 -0.000246 0.001133 0.004052 -0.002951 -0.005510 0.002379 0.000628 0.004963 0.004817 0.003716 0.001210 -0.002495 0.002316 0.000748 -0.002488 0.006868 -0.006202 0.012737 -0.003051 0.005228 -0.005585 0.000601 0.001697 -0.001323 -0.001036 -0.006580 -0.006925 0.000248 -0.001280 -0.000951 0.008533 -0.003143 -0.000960 -0.001496 -0.008398 0.006657
*dt_89 0.009048 -0.014561 0.042515 0.005602 -0.023103 0.037113 -0.014532 0.080281 0.033004 0.004483 -0.029920 0.007052 -0.015523 0.007255 -0.031414 0.001646 -0.027135 0.000867 -0.024013 -0.032081 0.016665 -0.021190 -0.048184 0.034499 0.002255 0.042277 0.005688 0.015341 0.012231 -0.004461 0.007286 0.006055 0.004957 -0.013810 0.049133 -0.037199 0.007535 -0.008122 -0.008431 0.012436 -0.001056 -0.010913 0.002313 0.027666 -0.037458 -0.030535 0.025834 -0.015698 0.010628 -0.007522 -0.015771 0.029180 0.031112 -0.002091 -0.000492 0.015450 0.000929 -0.013036 0.002657 -0.027397 -0.015490 0.001392 -0.013672 -0.041159 -0.013322 -0.002873 0.012577 -0.023575 -0.021588 0.038369 -0.005968 0.015405 0.010133 0.012416 0.005867 -0.003545 -0.007595 0.009558 -0.006714 0.014335 -0.032273 0.048529 -0.016038 0.007123 -0.017108 0.013553 -0.014831 -0.011380 0.006983 -0.033504 -0.026893 -0.024234 -0.006917 0.003186 0.026608 -0.015772 0.018384 -0.005924 -0.026680 0.037947
*dt_90 0.158224 -0.230297 0.500114 0.084612 -0.258883 0.427675 -0.211028 0.985194 0.418693 0.043663 -0.388010 0.098409 -0.146772 0.104744 -0.380795 -0.027841 -0.384767 -0.038634 -0.256937 -0.428879 0.183824 -0.253994 -0.610646 0.427084 0.089188 0.560578 0.091642 0.209205 0.149271 -0.000052 0.121312 0.108425 0.046840 -0.185481 0.643667 -0.468826 0.143197 -0.096403 -0.066920 0.150225 0.010958 -0.187897 0.085093 0.292926 -0.440435 -0.357204 0.270368 -0.152976 0.106600 -0.111074 -0.172856 0.317576 0.417690 -0.033947 0.038644 0.188825 -0.014341 -0.104760 0.090276 -0.359807 -0.160665 0.021608 -0.167455 -0.505519 -0.192023 -0.080758 0.157991 -0.256959 -0.288241 0.434618 -0.111931 0.195821 0.112077 0.187750 0.027812 -0.094884 -0.116207 0.158224 -0.023787 0.227817 -0.466587 0.587435 -0.138065 0.061014 -0.189299 0.190267 -0.190795 -0.109050 0.114255 -0.440331 -0.366517 -0.276493 -0.034530 0.066215 0.300354 -0.140859 0.192610 -0.076275 -0.323245 0.532372
*dt_91 0.112569 -0.150054 0.325554 0.062277 -0.168742 0.285816 -0.147940 0.652713 0.271213 0.027926 -0.256127 0.055161 -0.093669 0.065291 -0.247359 -0.018677 -0.251520 -0.024174 -0.163903 -0.277990 0.133678 -0.162809 -0.399683 0.278246 0.046740 0.373812 0.063488 0.141610 0.094339 0.003807 0.079706 0.074233 0.030615 -0.129392 0.422585 -0.303806 0.096389 -0.048559 -0.044342 0.094848 0.008449 -0.126203 0.058970 0.201123 -0.294086 -0.229019 0.179738 -0.109343 0.066564 -0.070919 -0.122623 0.211527 0.284809 -0.018799 0.025357 0.123006 -0.009847 -0.068415 0.058438 -0.238599 -0.105482 0.012738 -0.108775 -0.341507 -0.119925 -0.053273 0.100472 -0.176847 -0.186785 0.279344 -0.066886 0.128000 0.080302 0.128540 0.014990 -0.065895 -0.068379 0.104750 -0.024283 0.152976 -0.303551 0.386653 -0.095187 0.033769 -0.122918 0.124151 -0.128827 -0.074607 0.065018 -0.294630 -0.238574 -0.170899 -0.019018 0.045457 0.205045 -0.088692 0.120904 -0.055502 -0.211847 0.357207
*dt_92 0.022450 -0.022738 0.056122 0.006891 -0.029716 0.054869 -0.026020 0.113036 0.047148 0.004961 -0.047698 0.010157 -0.016004 0.013591 -0.045092 -0.005486 -0.046126 -0.003547 -0.031543 -0.044839 0.024998 -0.025041 -0.075931 0.053366 0.013046 0.069857 0.006162 0.024273 0.014467 -0.004873 0.011688 0.011262 0.004804 -0.021262 0.070822 -0.059492 0.015837 -0.009561 -0.005506 0.020452 0.005329 -0.019261 0.008031 0.036041 -0.050913 -0.046624 0.027619 -0.021484 0.015455 -0.009370 -0.018072 0.032565 0.052862 -0.003498 0.006838 0.022774 -0.002933 -0.007474 0.007605 -0.046952 -0.018197 0.004732 -0.014747 -0.055579 -0.020908 -0.011151 0.019967 -0.034790 -0.033631 0.052858 -0.007494 0.021055 0.014373 0.024503 0.000092 -0.013973 -0.016237 0.017343 -0.003613 0.023290 -0.055496 0.066824 -0.014913 0.008793 -0.026063 0.025809 -0.019189 -0.008210 0.013660 -0.049222 -0.038357 -0.027509 0.000323 0.010889 0.035210 -0.018289 0.025459 -0.011309 -0.038874 0.066610
*dt_93 0.040605 -0.059555 0.119176 0.025338 -0.062297 0.103187 -0.048775 0.239918 0.102846 0.007548 -0.097591 0.021023 -0.036576 0.028713 -0.092767 -0.006317 -0.087720 -0.013196 -0.059949 -0.103180 0.043926 -0.064099 -0.147469 0.100531 0.014589 0.136472 0.018274 0.045395 0.040696 -0.003938 0.029994 0.021795 0.010843 -0.043591 0.156683 -0.116869 0.035118 -0.015706 -0.011109 0.035153 0.003517 -0.040525 0.019135 0.068646 -0.101553 -0.086384 0.069886 -0.038995 0.029635 -0.031139 -0.047456 0.073472 0.104893 -0.010094 0.011222 0.048844 -0.006841 -0.029965 0.024660 -0.083044 -0.033347 0.004372 -0.034985 -0.119211 -0.042862 -0.019922 0.037278 -0.064742 -0.063742 0.099896 -0.020575 0.049028 0.026820 0.045985 0.002133 -0.020550 -0.029765 0.040440 -0.004403 0.055145 -0.112483 0.142104 -0.034490 0.011745 -0.049078 0.039769 -0.047509 -0.022144 0.029770 -0.107514 -0.086632 -0.063794 -0.006245 0.015519 0.069916 -0.036615 0.039814 -0.018678 -0.078504 0.124618
*dt_94 0.042536 -0.063238 0.125616 0.021226 -0.069080 0.105640 -0.054519 0.253029 0.101577 0.010084 -0.100370 0.025662 -0.037421 0.025654 -0.095686 -0.008873 -0.097676 -0.015314 -0.067660 -0.105592 0.053192 -0.068120 -0.157218 0.102993 0.021214 0.146470 0.018834 0.050720 0.035396 -0.005019 0.036520 0.032233 0.007754 -0.048736 0.164048 -0.122756 0.036990 -0.023950 -0.020921 0.035685 0.001164 -0.050380 0.024145 0.074239 -0.114030 -0.090980 0.068940 -0.039187 0.030795 -0.026532 -0.050675 0.083863 0.111819 -0.009840 0.009255 0.049667 -0.005698 -0.022798 0.022799 -0.096171 -0.035839 0.002657 -0.040583 -0.126271 -0.047583 -0.020126 0.038810 -0.068239 -0.071764 0.114250 -0.031982 0.051183 0.033180 0.052240 0.006312 -0.029261 -0.026996 0.039325 -0.012158 0.057843 -0.118090 0.151806 -0.033664 0.018161 -0.046621 0.048267 -0.048530 -0.027389 0.031836 -0.116393 -0.090619 -0.063895 -0.011810 0.021230 0.076815 -0.031898 0.048623 -0.017679 -0.081964 0.134825
*dt_95 0.078246 -0.103177 0.217333 0.041634 -0.114452 0.193821 -0.099699 0.435981 0.183016 0.015312 -0.175906 0.039956 -0.063649 0.044972 -0.163142 -0.011811 -0.171953 -0.023092 -0.111682 -0.188082 0.089482 -0.107370 -0.272610 0.183514 0.030330 0.254408 0.033482 0.095785 0.065207 0.001472 0.050221 0.049894 0.021805 -0.087618 0.279301 -0.207101 0.060594 -0.042493 -0.030310 0.064166 0.001863 -0.076899 0.042845 0.131566 -0.190642 -0.161996 0.122229 -0.070554 0.041895 -0.048168 -0.075762 0.138280 0.186095 -0.017390 0.020264 0.076190 -0.007889 -0.050724 0.036735 -0.162417 -0.074796 0.007876 -0.066113 -0.228669 -0.084267 -0.039289 0.064934 -0.120953 -0.121051 0.194438 -0.044715 0.093116 0.053032 0.080779 0.017850 -0.039596 -0.052235 0.066902 -0.007758 0.101819 -0.211190 0.258949 -0.065711 0.029432 -0.089670 0.086975 -0.088946 -0.050381 0.045344 -0.200452 -0.162841 -0.119830 -0.014121 0.027201 0.135814 -0.058306 0.084377 -0.035631 -0.149468 0.242256
*dt_96 0.057224 -0.079995 0.179594 0.024748 -0.088308 0.146502 -0.080107 0.348925 0.142422 0.017022 -0.138918 0.031941 -0.047610 0.035465 -0.133999 -0.007885 -0.129846 -0.018071 -0.092302 -0.142160 0.065823 -0.091857 -0.211212 0.143345 0.025806 0.193626 0.035582 0.071476 0.053622 -0.002303 0.043014 0.033834 0.011031 -0.072238 0.223023 -0.160618 0.050879 -0.031084 -0.020545 0.055681 0.001641 -0.063155 0.030132 0.103382 -0.149952 -0.121988 0.092374 -0.051285 0.038792 -0.042872 -0.063166 0.105431 0.144742 -0.009605 0.011121 0.068764 -0.008735 -0.033525 0.026835 -0.129602 -0.050796 0.002230 -0.051319 -0.172873 -0.062672 -0.027040 0.057321 -0.094296 -0.092682 0.146860 -0.031541 0.075863 0.041115 0.062180 0.009678 -0.037823 -0.043177 0.056164 -0.014486 0.078890 -0.159151 0.200922 -0.052740 0.016644 -0.068069 0.059795 -0.067863 -0.039112 0.042039 -0.155815 -0.129793 -0.094786 -0.010321 0.027649 0.107613 -0.051144 0.065240 -0.027797 -0.112164 0.185143
*dt_97 0.303252 -0.423652 0.911332 0.156586 -0.454743 0.772397 -0.391473 1.779053 0.736774 0.092103 -0.711675 0.161420 -0.250517 0.189626 -0.681920 -0.043830 -0.689774 -0.065389 -0.461923 -0.763293 0.348187 -0.443908 -1.093075 0.766791 0.134323 1.016374 0.158992 0.380866 0.265827 -0.016707 0.225025 0.204573 0.083221 -0.347694 1.137152 -0.836159 0.257907 -0.153431 -0.124316 0.281383 0.013731 -0.326224 0.159026 0.535249 -0.786386 -0.644972 0.493056 -0.283848 0.185485 -0.207376 -0.333180 0.578812 0.760366 -0.055548 0.064906 0.329171 -0.014885 -0.193195 0.159030 -0.645398 -0.281486 0.038406 -0.287418 -0.920458 -0.322945 -0.165480 0.268051 -0.478275 -0.500802 0.777022 -0.185213 0.370999 0.204801 0.345345 0.043398 -0.178167 -0.201765 0.282661 -0.059740 0.404371 -0.824813 1.035104 -0.252445 0.095657 -0.357956 0.332207 -0.363997 -0.200686 0.200005 -0.822574 -0.682380 -0.480862 -0.059831 0.130392 0.556217 -0.245806 0.336815 -0.137361 -0.590854 0.977279
*dt_98 0.047924 -0.065283 0.137124 0.027427 -0.075285 0.115827 -0.061767 0.272181 0.110797 0.010540 -0.108358 0.022852 -0.034321 0.029378 -0.102071 -0.002948 -0.105684 -0.009830 -0.070642 -0.119297 0.054419 -0.071783 -0.165812 0.113630 0.021703 0.156878 0.027173 0.056587 0.043998 -0.000343 0.038849 0.031885 0.015460 -0.053730 0.173382 -0.130209 0.045414 -0.019730 -0.022742 0.041298 0.003953 -0.054721 0.019479 0.081050 -0.120129 -0.094853 0.076952 -0.041541 0.032876 -0.027851 -0.048845 0.090104 0.118816 -0.011291 0.010993 0.054491 -0.002208 -0.028491 0.022031 -0.101579 -0.046865 0.003424 -0.038590 -0.137159 -0.051181 -0.028337 0.044166 -0.074069 -0.079899 0.114914 -0.032540 0.054060 0.033668 0.050002 0.007090 -0.028882 -0.032364 0.042415 -0.004978 0.064944 -0.131799 0.161994 -0.039763 0.013295 -0.054381 0.051379 -0.055594 -0.027810 0.030846 -0.128112 -0.106800 -0.069088 -0.010642 0.015758 0.080940 -0.041673 0.046801 -0.022820 -0.094290 0.151805
*dt_99 0.019901 -0.026343 0.059303 0.014363 -0.027857 0.044661 -0.023342 0.116370 0.046362 0.009080 -0.044826 0.011753 -0.016897 0.013048 -0.042741 0.000708 -0.038634 -0.000736 -0.025974 -0.052307 0.019846 -0.026908 -0.065308 0.043590 0.004486 0.065325 0.013749 0.025180 0.021798 -0.000524 0.009945 0.008191 0.001556 -0.022694 0.077499 -0.050063 0.020882 -0.007826 -0.012383 0.014455 0.003118 -0.025779 0.012633 0.030311 -0.047707 -0.045195 0.034845 -0.016283 0.015537 -0.016078 -0.025627 0.034218 0.050202 -0.003674 0.005638 0.017137 -0.002122 -0.012896 0.012551 -0.041527 -0.013769 -0.002644 -0.023044 -0.053593 -0.019986 -0.010402 0.019428 -0.028142 -0.036088 0.048174 -0.014162 0.018991 0.017229 0.020580 0.003931 -0.011651 -0.017327 0.013491 -0.004601 0.031209 -0.049324 0.065251 -0.018922 0.003436 -0.021131 0.022443 -0.020574 -0.010332 0.014132 -0.051243 -0.045696 -0.031442 -0.000907 0.009516 0.030161 -0.012825 0.025850 -0.010235 -0.033880 0.057343
100 100
*dt_0 0.006953 -0.006058 0.018397 0.006799 -0.005222 0.015877 -0.012347 0.034510 0.018342 -0.001272 -0.012796 0.008200 -0.003115 0.008154 -0.015324 0.002236 -0.011125 -0.004798 -0.011734 -0.013034 0.009555 -0.012198 -0.020831 0.019101 0.006055 0.018796 0.001535 0.008129 0.002448 -0.001582 0.005792 0.002961 -0.001764 -0.004616 0.020621 -0.021496 0.005668 -0.004518 -0.006149 0.002691 0.003776 -0.005823 0.007478 0.013005 -0.020374 -0.017117 0.007483 -0.004083 0.003350 -0.003155 -0.009647 0.010304 0.012162 0.000857 -0.003116 0.008446 -0.004007 -0.001257 0.003352 -0.015919 -0.009464 -0.002281 -0.007957 -0.021354 -0.004901 0.000927 0.002168 -0.013557 -0.008844 0.019130 -0.001871 0.007295 0.008635 0.007216 0.004126 -0.001924 -0.000199 0.002020 -0.001416 0.013756 -0.012991 0.026670 -0.002086 0.003992 -0.006722 0.004799 -0.009722 -0.000827 0.002458 -0.017451 -0.013726 -0.010165 -0.003142 0.006253 0.007772 -0.007829 0.009544 0.000877 -0.007907 0.017880
*dt_1 0.011148 -0.021699 0.047276 0.010734 -0.026096 0.032385 -0.017809 0.087715 0.036596 0.005340 -0.034395 0.009018 -0.011104 0.010963 -0.029768 -0.002839 -0.033822 -0.001087 -0.020523 -0.037237 0.019973 -0.020099 -0.047097 0.031493 0.005756 0.044919 0.011111 0.022364 0.012596 -0.001621 0.008782 0.009935 0.007217 -0.017384 0.049375 -0.037100 0.016011 -0.003592 -0.004596 0.016490 -0.001418 -0.015831 0.010779 0.025355 -0.041247 -0.031350 0.021390 -0.015004 0.005877 -0.012352 -0.013488 0.031476 0.039243 -0.004556 -0.000834 0.012560 -0.000751 -0.008081 0.004245 -0.028984 -0.010071 0.003338 -0.017597 -0.045655 -0.013586 -0.002533 0.012911 -0.025098 -0.025948 0.031612 -0.010669 0.015911 0.012810 0.019426 0.003233 -0.003773 -0.006910 0.008324 0.000632 0.018628 -0.034681 0.049381 -0.010511 0.006000 -0.021730 0.018169 -0.012744 -0.004821 0.011437 -0.034101 -0.032721 -0.027028 -0.000409 0.008000 0.029270 -0.012909 0.013058 -0.009322 -0.027459 0.048729
*dt_2 0.006395 -0.009152 0.017183 0.008040 -0.007248 0.019058 -0.008787 0.044029 0.012649 0.002404 -0.017231 0.001913 -0.005920 0.001439 -0.012004 -0.000450 -0.016938 -0.006237 -0.006813 -0.021440 0.005837 -0.005484 -0.019969 0.014650 0.002644 0.023528 0.002735 0.012537 0.001932 -0.000808 0.009544 0.007947 -0.001396 -0.011782 0.021262 -0.022023 0.003269 -0.007231 -0.002781 0.009781 -0.000669 -0.004475 -0.001577 0.014607 -0.018136 -0.014023 0.013044 -0.007550 0.004455 -0.006512 -0.009687 0.015556 0.012803 -0.004428 0.005833 0.005903 0.004611 -0.004171 0.004292 -0.017709 -0.008602 -0.001825 -0.005264 -0.024399 -0.011763 -0.004581 0.002097 -0.011998 -0.007077 0.018350 -0.007053 0.003136 0.007315 0.007940 0.004730 -0.001830 -0.006977 0.008013 0.000476 0.013332 -0.020739 0.027429 -0.006969 0.004235 -0.006974 0.003884 -0.006660 -0.005225 0.005037 -0.015901 -0.011630 -0.007404 -0.004961 -0.001143 0.012186 -0.009921 0.009670 -0.005660 -0.012023 0.023649
*dt_3 0.000868 -0.002252 0.003194 -0.000071 0.002872 -0.000686 0.001825 0.009653 -0.000673 -0.001387 -0.001377 -0.003585 0.001372 0.000803 -0.005794 -0.004513 0.000651 0.001730 -0.006181 -0.002654 0.000773 -0.002080 -0.006725 0.003559 -0.001971 0.008204 0.001784 0.000209 0.002450 -0.003209 0.003978 -0.002609 0.004098 0.000006 0.009437 0.000055 0.000768 -0.002932 -0.004075 0.001441 0.003476 0.001520 0.004804 0.003202 -0.007079 0.001528 -0.001266 -0.003888 0.004722 -0.002231 -0.006266 0.007577 0.000570 -0.004380 -0.002503 0.000092 -0.000205 0.001665 0.002211 -0.006663 -0.003835 -0.001016 0.000809 -0.008528 -0.003104 0.001917 0.005012 0.002766 -0.007136 0.005866 0.000749 -0.001135 -0.002923 -0.001824 -0.004491 0.001765 -0.004636 -0.003118 -0.004314 0.005379 -0.005374 0.002649 0.000708 0.004161 -0.000252 0.003092 0.001794 -0.000286 -0.002312 -0.003622 -0.004223 -0.005996 0.001285 0.002288 0.006077 -0.002725 0.005918 0.003934 0.000269 0.008601
